{"learner":{"attributes":{"scikit_learn":"{\"_estimator_type\": \"classifier\"}"},"feature_names":[],"feature_types":[],"gradient_booster":{"model":{"gbtree_model_param":{"num_parallel_tree":"1","num_trees":"400"},"iteration_indptr":[0,1,2,3,4,5,6,7,8,9,10,11,12,13,14,15,16,17,18,19,20,21,22,23,24,25,26,27,28,29,30,31,32,33,34,35,36,37,38,39,40,41,42,43,44,45,46,47,48,49,50,51,52,53,54,55,56,57,58,59,60,61,62,63,64,65,66,67,68,69,70,71,72,73,74,75,76,77,78,79,80,81,82,83,84,85,86,87,88,89,90,91,92,93,94,95,96,97,98,99,100,101,102,103,104,105,106,107,108,109,110,111,112,113,114,115,116,117,118,119,120,121,122,123,124,125,126,127,128,129,130,131,132,133,134,135,136,137,138,139,140,141,142,143,144,145,146,147,148,149,150,151,152,153,154,155,156,157,158,159,160,161,162,163,164,165,166,167,168,169,170,171,172,173,174,175,176,177,178,179,180,181,182,183,184,185,186,187,188,189,190,191,192,193,194,195,196,197,198,199,200,201,202,203,204,205,206,207,208,209,210,211,212,213,214,215,216,217,218,219,220,221,222,223,224,225,226,227,228,229,230,231,232,233,234,235,236,237,238,239,240,241,242,243,244,245,246,247,248,249,250,251,252,253,254,255,256,257,258,259,260,261,262,263,264,265,266,267,268,269,270,271,272,273,274,275,276,277,278,279,280,281,282,283,284,285,286,287,288,289,290,291,292,293,294,295,296,297,298,299,300,301,302,303,304,305,306,307,308,309,310,311,312,313,314,315,316,317,318,319,320,321,322,323,324,325,326,327,328,329,330,331,332,333,334,335,336,337,338,339,340,341,342,343,344,345,346,347,348,349,350,351,352,353,354,355,356,357,358,359,360,361,362,363,364,365,366,367,368,369,370,371,372,373,374,375,376,377,378,379,380,381,382,383,384,385,386,387,388,389,390,391,392,393,394,395,396,397,398,399,400],"tree_info":[0,0,0,0,0,0,0,0,0,0,0,0,0,0,0,0,0,0,0,0,0,0,0,0,0,0,0,0,0,0,0,0,0,0,0,0,0,0,0,0,0,0,0,0,0,0,0,0,0,0,0,0,0,0,0,0,0,0,0,0,0,0,0,0,0,0,0,0,0,0,0,0,0,0,0,0,0,0,0,0,0,0,0,0,0,0,0,0,0,0,0,0,0,0,0,0,0,0,0,0,0,0,0,0,0,0,0,0,0,0,0,0,0,0,0,0,0,0,0,0,0,0,0,0,0,0,0,0,0,0,0,0,0,0,0,0,0,0,0,0,0,0,0,0,0,0,0,0,0,0,0,0,0,0,0,0,0,0,0,0,0,0,0,0,0,0,0,0,0,0,0,0,0,0,0,0,0,0,0,0,0,0,0,0,0,0,0,0,0,0,0,0,0,0,0,0,0,0,0,0,0,0,0,0,0,0,0,0,0,0,0,0,0,0,0,0,0,0,0,0,0,0,0,0,0,0,0,0,0,0,0,0,0,0,0,0,0,0,0,0,0,0,0,0,0,0,0,0,0,0,0,0,0,0,0,0,0,0,0,0,0,0,0,0,0,0,0,0,0,0,0,0,0,0,0,0,0,0,0,0,0,0,0,0,0,0,0,0,0,0,0,0,0,0,0,0,0,0,0,0,0,0,0,0,0,0,0,0,0,0,0,0,0,0,0,0,0,0,0,0,0,0,0,0,0,0,0,0,0,0,0,0,0,0,0,0,0,0,0,0,0,0,0,0,0,0,0,0,0,0,0,0,0,0,0,0,0,0,0,0,0,0,0,0,0,0,0,0,0,0,0,0,0,0,0,0,0,0,0,0,0,0,0,0,0,0,0,0,0,0,0,0,0,0,0,0,0,0,0,0],"trees":[{"base_weights":[-1.223139E-3,4.199596E-1,-1.08210996E-1,-2.8423455E-1,9.244322E-2,-1.8275711E-1,1.1514093E-1,-3.6678895E-1,-3.1698808E-2,-1.4420072E-2,-2.7617207E-1,7.6352924E-2,4.5764124E-1,-5.571521E-1,-2.813277E-1,-7.929166E-2,4.1901127E-1,-1.8312314E-1,5.782788E-2,-4.463548E-1,-2.0227934E-1,2.741454E-1,1.0766841E-2,2.459665E-1,5.44583E-1,-5.971968E-1,-1.693033E-1,-8.461609E-2,-3.944692E-1,-1.5847003E-1,2.1952266E-1,4.7489816E-1,-4.3646216E-2,-2.2444925E-1,1.6973118E-1,2.026891E-2,3.878621E-1,-4.8812482E-1,-7.278899E-2,-1.3186991E-1,-4.1006732E-1,2.024074E-1,5.6093997E-1,1.5857542E-1,-7.320341E-2,3.6180323E-1,-2.1910362E-1,7.825609E-1,4.627894E-1,-2.726656E-2,-4.041068E-2,-1.5876098E-2,2.8317029E-2,-1.2500529E-2,1.0239726E-3,-2.1787575E-2,-2.2038699E-3,-1.2233979E-2,1.0790565E-2,1.66771E-2,-3.196957E-2,3.360213E-2,6.44789E-3,-1.3437502E-2,1.0203912E-2,2.6718928E-2,2.233223E-3,4.2647957E-3,-8.886771E-3,2.2407977E-2,1.3747978E-3,-2.6271274E-2,-6.587719E-3,1.998744E-2,-7.001973E-3,-3.9031662E-3,-2.276484E-2,-2.2622688E-2,-3.2796976E-4,-8.0569315E-4,1.4639295E-2,3.5903465E-2,1.9851157E-2,4.0602412E-5,1.134909E-2,-5.9948745E-3,1.8240899E-2,2.485569E-2,-9.003688E-4,-3.180721E-2,1.3422489E-2,2.4380377E-2,4.721881E-2,3.0503765E-2,1.2726723E-2],"categories":[],"categories_nodes":[],"categories_segments":[],"categories_sizes":[],"default_left":[0,0,0,0,0,0,0,0,0,0,0,0,0,0,0,0,0,0,0,0,0,0,0,0,0,0,0,0,0,0,0,0,0,0,0,0,0,0,0,0,0,0,0,0,0,0,0,0,0,0,0,0,0,0,0,0,0,0,0,0,0,0,0,0,0,0,0,0,0,0,0,0,0,0,0,0,0,0,0,0,0,0,0,0,0,0,0,0,0,0,0,0,0,0,0],"id":0,"left_children":[1,3,5,7,-1,9,11,13,15,17,19,21,23,25,27,29,31,33,35,37,39,41,43,45,47,49,51,53,55,57,59,61,-1,63,65,67,69,71,73,75,77,79,81,83,85,87,89,91,93,-1,-1,-1,-1,-1,-1,-1,-1,-1,-1,-1,-1,-1,-1,-1,-1,-1,-1,-1,-1,-1,-1,-1,-1,-1,-1,-1,-1,-1,-1,-1,-1,-1,-1,-1,-1,-1,-1,-1,-1,-1,-1,-1,-1,-1,-1],"loss_changes":[8.904088E2,4.02807E3,2.6237952E2,5.5904938E1,0E0,1.8578198E2,5.2356926E1,3.2726166E1,1.4230782E1,5.1415E1,9.545746E1,4.596778E1,7.245598E0,9.609695E0,3.1058632E1,1.4218699E1,4.9903355E0,1.8481926E1,3.660473E1,3.5844757E1,7.7480545E1,1.8041252E1,3.3054966E1,6.466957E0,5.1545944E0,5.757492E0,6.7121015E0,8.894076E0,1.2805725E1,1.5363376E1,1.255246E1,4.100442E0,0E0,2.155724E1,6.049593E0,3.417301E1,6.544113E0,2.7420776E1,7.44221E0,6.887491E1,2.2929337E1,1.397592E1,4.2478676E0,1.0412338E1,3.478273E1,4.906867E0,5.104907E0,2.9304695E0,6.3894234E0,0E0,0E0,0E0,0E0,0E0,0E0,0E0,0E0,0E0,0E0,0E0,0E0,0E0,0E0,0E0,0E0,0E0,0E0,0E0,0E0,0E0,0E0,0E0,0E0,0E0,0E0,0E0,0E0,0E0,0E0,0E0,0E0,0E0,0E0,0E0,0E0,0E0,0E0,0E0,0E0,0E0,0E0,0E0,0E0,0E0,0E0],"parents":[2147483647,0,0,1,1,2,2,3,3,5,5,6,6,7,7,8,8,9,9,10,10,11,11,12,12,13,13,14,14,15,15,16,16,17,17,18,18,19,19,20,20,21,21,22,22,23,23,24,24,25,25,26,26,27,27,28,28,29,29,30,30,31,31,33,33,34,34,35,35,36,36,37,37,38,38,39,39,40,40,41,41,42,42,43,43,44,44,45,45,46,46,47,47,48,48],"right_children":[2,4,6,8,-1,10,12,14,16,18,20,22,24,26,28,30,32,34,36,38,40,42,44,46,48,50,52,54,56,58,60,62,-1,64,66,68,70,72,74,76,78,80,82,84,86,88,90,92,94,-1,-1,-1,-1,-1,-1,-1,-1,-1,-1,-1,-1,-1,-1,-1,-1,-1,-1,-1,-1,-1,-1,-1,-1,-1,-1,-1,-1,-1,-1,-1,-1,-1,-1,-1,-1,-1,-1,-1,-1,-1,-1,-1,-1,-1,-1],"split_conditions":[1E0,4E0,1.8E1,1.8E1,9.244322E-2,3.7E1,1E0,1E0,1E0,1E0,1E0,2E0,1E0,1E0,3.7E1,1E0,6.9E1,1E0,1E0,1E0,4E0,1E0,3.7E1,1E0,2E0,4E0,1E0,7E0,1E0,1E0,6.5E1,2E0,-4.3646216E-2,1E0,2E0,4E0,2E0,1E0,4.1E1,2E0,1E0,1E0,4.3E1,1E0,1E0,5.9E1,1E0,2E0,5E1,-2.726656E-2,-4.041068E-2,-1.5876098E-2,2.8317029E-2,-1.2500529E-2,1.0239726E-3,-2.1787575E-2,-2.2038699E-3,-1.2233979E-2,1.0790565E-2,1.66771E-2,-3.196957E-2,3.360213E-2,6.44789E-3,-1.3437502E-2,1.0203912E-2,2.6718928E-2,2.233223E-3,4.2647957E-3,-8.886771E-3,2.2407977E-2,1.3747978E-3,-2.6271274E-2,-6.587719E-3,1.998744E-2,-7.001973E-3,-3.9031662E-3,-2.276484E-2,-2.2622688E-2,-3.2796976E-4,-8.0569315E-4,1.4639295E-2,3.5903465E-2,1.9851157E-2,4.0602412E-5,1.134909E-2,-5.9948745E-3,1.8240899E-2,2.485569E-2,-9.003688E-4,-3.180721E-2,1.3422489E-2,2.4380377E-2,4.721881E-2,3.0503765E-2,1.2726723E-2],"split_indices":[9,8,3,3,0,6,31,4,23,4,4,9,4,27,6,19,6,25,31,28,9,20,6,16,9,5,31,3,31,20,6,7,0,26,9,9,4,30,6,4,23,4,6,4,30,6,7,5,6,0,0,0,0,0,0,0,0,0,0,0,0,0,0,0,0,0,0,0,0,0,0,0,0,0,0,0,0,0,0,0,0,0,0,0,0,0,0,0,0,0,0,0,0,0,0],"split_type":[0,0,0,0,0,0,0,0,0,0,0,0,0,0,0,0,0,0,0,0,0,0,0,0,0,0,0,0,0,0,0,0,0,0,0,0,0,0,0,0,0,0,0,0,0,0,0,0,0,0,0,0,0,0,0,0,0,0,0,0,0,0,0,0,0,0,0,0,0,0,0,0,0,0,0,0,0,0,0,0,0,0,0,0,0,0,0,0,0,0,0,0,0,0,0],"sum_hessian":[1.9757875E4,4.001623E3,1.5756252E4,2.6811147E3,1.3205084E3,1.1813538E4,3.9427139E3,2.0202417E3,6.60873E2,4.2164688E3,7.5970693E3,3.5427249E3,3.9998904E2,6.2424036E2,1.3960013E3,5.984985E2,6.237453E1,1.2638268E3,2.9526418E3,2.298452E3,5.298617E3,8.814115E2,2.6613132E3,1.1757104E2,2.82418E2,5.6533105E2,5.890928E1,5.1038205E2,8.856193E2,4.735019E2,1.24996574E2,6.0394386E1,1.9801438E0,1.1316522E3,1.3217459E2,2.6519075E3,3.0073434E2,2.0670227E3,2.314293E2,3.9588025E3,1.3398148E3,7.064163E2,1.7499521E2,9.6383496E2,1.6974783E3,9.4304344E1,2.326669E1,7.0047585E1,2.1237042E2,4.5667065E2,1.0866039E2,4.9503593E1,9.405683E0,1.9776686E2,3.126152E2,7.920575E2,9.356179E1,3.8513797E2,8.8363914E1,1.10888054E2,1.4108524E1,3.787025E1,2.2524136E1,1.025962E3,1.0569018E2,3.291989E1,9.925471E1,1.9967275E3,6.5518005E2,2.574187E2,4.3315647E1,1.8707408E3,1.9628175E2,2.8217049E1,2.0321225E2,3.395204E3,5.6359845E2,1.212343E3,1.27471756E2,2.0692502E2,4.9949127E2,8.762136E1,8.737385E1,2.918237E2,6.720113E2,1.5346115E3,1.6286682E2,6.930503E1,2.4999315E1,1.2375898E1,1.0890791E1,2.6236906E1,4.381068E1,1.23263954E2,8.910647E1],"tree_param":{"num_deleted":"0","num_feature":"32","num_nodes":"95","size_leaf_vector":"1"}},{"base_weights":[-3.4147922E-3,-1.3381425E-1,2.581284E-1,1.39050465E-2,-2.0952834E-1,3.8487452E-1,1.9326031E-1,-1.9262122E-2,3.2156727E-1,-2.4359602E-1,9.340395E-2,3.4849465E-1,5.3336483E-1,1.6536473E-1,4.3845928E-1,-5.3320482E-2,3.0171266E-1,3.07094E-1,1.1157426E0,-2.7931863E-1,8.769398E-2,1.219388E-1,-2.1670143E-1,3.2053924E-1,6.105943E-1,7.456834E-1,4.2823017E-1,1.2176863E-1,3.378359E-1,2.9587024E-1,5.000587E-1,-8.33635E-2,2.7145305E-1,1.0954422E-1,4.2982623E-1,3.6247265E-1,1.9601548E-1,7.703106E-2,-2.798067E-2,-3.128706E-1,4.8033386E-2,1.3790616E-1,1.918495E-2,2.0458569E-1,-4.2644054E-2,-5.0196975E-1,3.089868E-2,2.7854502E-1,4.9965096E-1,5.4192126E-1,1.2201351E0,8.543252E-1,1.9731434E-1,4.9840122E-1,1.8743658E-1,9.1092736E-2,4.1963416E-1,3.5365623E-1,-2.4400464E-1,-3.1916346E-2,3.1607634E-1,5.9017634E-1,3.7290052E-1,-5.5646137E-3,1.1214486E-2,1.0359767E-2,2.198221E-2,3.3199146E-2,2.6604678E-3,2.5084823E-2,8.360497E-3,1.5291266E-2,3.427897E-2,1.5632046E-2,-1.5489851E-2,-1.7323218E-2,2.6114609E-3,7.2338614E-3,-4.247086E-3,5.244682E-3,2.793898E-2,-1.4892551E-2,4.9599037E-3,-1.1600436E-3,1.4932491E-2,2.983757E-3,-2.1967037E-2,-3.828837E-2,1.4699389E-2,-5.9822085E-3,2.0007899E-2,1.2620225E-2,2.8020922E-2,2.3076786E-2,3.9392017E-2,3.0971868E-2,8.815989E-3,7.684239E-2,2.6117235E-2,2.5999544E-2,4.8982546E-2,2.3384057E-2,-2.5257174E-2,3.2196492E-3,2.97546E-2,1.6575191E-2,-1.9994104E-2,3.1421632E-3,2.0381274E-2,6.4284685E-3,2.4784757E-2,1.2076183E-2,2.1300318E-2,-3.3646982E-2,7.172613E-3,1.1071906E-2,3.1759605E-2,2.077887E-2,3.8051102E-2,5.250742E-2,1.4429375E-2],"categories":[],"categories_nodes":[],"categories_segments":[],"categories_sizes":[],"default_left":[0,0,0,0,0,0,0,0,0,0,0,0,0,0,0,0,0,0,0,0,0,0,0,0,0,0,0,0,0,0,0,0,0,0,0,0,0,0,0,0,0,0,0,0,0,0,0,0,0,0,0,0,0,0,0,0,0,0,0,0,0,0,0,0,0,0,0,0,0,0,0,0,0,0,0,0,0,0,0,0,0,0,0,0,0,0,0,0,0,0,0,0,0,0,0,0,0,0,0,0,0,0,0,0,0,0,0,0,0,0,0,0,0,0,0,0,0,0,0,0,0],"id":1,"left_children":[1,3,5,7,9,11,13,15,17,19,21,23,25,27,29,31,33,35,37,39,41,43,45,47,49,51,53,55,57,59,61,63,65,67,69,71,73,-1,-1,75,77,79,81,83,85,87,89,91,93,95,97,99,101,103,105,107,109,111,113,-1,115,117,119,-1,-1,-1,-1,-1,-1,-1,-1,-1,-1,-1,-1,-1,-1,-1,-1,-1,-1,-1,-1,-1,-1,-1,-1,-1,-1,-1,-1,-1,-1,-1,-1,-1,-1,-1,-1,-1,-1,-1,-1,-1,-1,-1,-1,-1,-1,-1,-1,-1,-1,-1,-1,-1,-1,-1,-1,-1,-1],"loss_changes":[6.765116E2,1.4804678E2,5.418506E1,4.5786472E1,9.033707E1,1.1877716E1,2.9799911E1,4.4298256E1,4.676235E0,9.312482E1,7.8610973E0,1.2967987E1,9.448051E0,2.945491E1,3.7650604E0,3.5763184E1,9.523403E0,2.5753021E0,6.1547394E0,7.801141E1,2.6339903E0,1.1045962E1,5.31054E0,1.2087509E1,6.5405655E0,8.38443E0,4.8911514E0,2.858783E1,7.366913E0,2.7849607E0,3.328308E0,2.8840462E1,3.2634563E0,4.863387E0,4.311924E0,5.023239E0,8.668335E0,0E0,0E0,7.902124E1,8.507661E0,6.084441E0,8.2822695E0,1.1584671E1,1.1069892E1,7.5513144E0,2.3311894E0,9.577789E0,3.0138016E0,4.3239136E0,2.8706512E0,4.4987793E0,4.9918613E0,9.522469E0,5.900796E0,2.538401E1,6.4060707E0,6.1473923E0,3.67444E0,0E0,3.9249086E0,5.038269E0,7.1856365E0,0E0,0E0,0E0,0E0,0E0,0E0,0E0,0E0,0E0,0E0,0E0,0E0,0E0,0E0,0E0,0E0,0E0,0E0,0E0,0E0,0E0,0E0,0E0,0E0,0E0,0E0,0E0,0E0,0E0,0E0,0E0,0E0,0E0,0E0,0E0,0E0,0E0,0E0,0E0,0E0,0E0,0E0,0E0,0E0,0E0,0E0,0E0,0E0,0E0,0E0,0E0,0E0,0E0,0E0,0E0,0E0,0E0,0E0],"parents":[2147483647,0,0,1,1,2,2,3,3,4,4,5,5,6,6,7,7,8,8,9,9,10,10,11,11,12,12,13,13,14,14,15,15,16,16,17,17,18,18,19,19,20,20,21,21,22,22,23,23,24,24,25,25,26,26,27,27,28,28,29,29,30,30,31,31,32,32,33,33,34,34,35,35,36,36,39,39,40,40,41,41,42,42,43,43,44,44,45,45,46,46,47,47,48,48,49,49,50,50,51,51,52,52,53,53,54,54,55,55,56,56,57,57,58,58,60,60,61,61,62,62],"right_children":[2,4,6,8,10,12,14,16,18,20,22,24,26,28,30,32,34,36,38,40,42,44,46,48,50,52,54,56,58,60,62,64,66,68,70,72,74,-1,-1,76,78,80,82,84,86,88,90,92,94,96,98,100,102,104,106,108,110,112,114,-1,116,118,120,-1,-1,-1,-1,-1,-1,-1,-1,-1,-1,-1,-1,-1,-1,-1,-1,-1,-1,-1,-1,-1,-1,-1,-1,-1,-1,-1,-1,-1,-1,-1,-1,-1,-1,-1,-1,-1,-1,-1,-1,-1,-1,-1,-1,-1,-1,-1,-1,-1,-1,-1,-1,-1,-1,-1,-1,-1,-1],"split_conditions":[4E0,3.6E1,3.6E1,1E0,1E0,1E0,1E0,1E0,3.59E2,1E0,3.36E2,1E0,1.23E2,1E0,1.14E2,1E0,2E0,3E1,1E0,1E0,2.1E2,6E1,3.5E2,1E0,3.32E2,3E0,1E0,1E0,3.57E2,3E0,5.6E1,1E0,3E0,3E1,3.2E1,1E0,4E0,7.703106E-2,-2.798067E-2,1E0,5.6E1,6.9E1,2.41E2,9.7E1,1E0,6.3E1,1E0,1E0,1E0,2.67E2,2E0,3.3E1,1E0,1.61E2,4E0,1E0,1E0,2E0,5.6E1,-3.1916346E-2,1E0,1E0,1.38E2,-5.5646137E-3,1.1214486E-2,1.0359767E-2,2.198221E-2,3.3199146E-2,2.6604678E-3,2.5084823E-2,8.360497E-3,1.5291266E-2,3.427897E-2,1.5632046E-2,-1.5489851E-2,-1.7323218E-2,2.6114609E-3,7.2338614E-3,-4.247086E-3,5.244682E-3,2.793898E-2,-1.4892551E-2,4.9599037E-3,-1.1600436E-3,1.4932491E-2,2.983757E-3,-2.1967037E-2,-3.828837E-2,1.4699389E-2,-5.9822085E-3,2.0007899E-2,1.2620225E-2,2.8020922E-2,2.3076786E-2,3.9392017E-2,3.0971868E-2,8.815989E-3,7.684239E-2,2.6117235E-2,2.5999544E-2,4.8982546E-2,2.3384057E-2,-2.5257174E-2,3.2196492E-3,2.97546E-2,1.6575191E-2,-1.9994104E-2,3.1421632E-3,2.0381274E-2,6.4284685E-3,2.4784757E-2,1.2076183E-2,2.1300318E-2,-3.3646982E-2,7.172613E-3,1.1071906E-2,3.1759605E-2,2.077887E-2,3.8051102E-2,5.250742E-2,1.4429375E-2],"split_indices":[8,6,6,24,31,19,30,31,2,30,2,22,2,21,2,28,5,6,20,24,2,6,2,20,2,7,13,26,2,2,6,22,8,2,6,28,5,0,0,22,6,6,2,2,12,6,16,26,31,2,7,2,20,2,5,28,5,5,6,0,18,7,2,0,0,0,0,0,0,0,0,0,0,0,0,0,0,0,0,0,0,0,0,0,0,0,0,0,0,0,0,0,0,0,0,0,0,0,0,0,0,0,0,0,0,0,0,0,0,0,0,0,0,0,0,0,0,0,0,0,0],"split_type":[0,0,0,0,0,0,0,0,0,0,0,0,0,0,0,0,0,0,0,0,0,0,0,0,0,0,0,0,0,0,0,0,0,0,0,0,0,0,0,0,0,0,0,0,0,0,0,0,0,0,0,0,0,0,0,0,0,0,0,0,0,0,0,0,0,0,0,0,0,0,0,0,0,0,0,0,0,0,0,0,0,0,0,0,0,0,0,0,0,0,0,0,0,0,0,0,0,0,0,0,0,0,0,0,0,0,0,0,0,0,0,0,0,0,0,0,0,0,0,0,0],"sum_hessian":[1.9834078E4,1.32356E4,6.5984785E3,4.4853784E3,8.750221E3,2.2321453E3,4.3663335E3,4.0497385E3,4.3563998E2,7.865828E3,8.843927E2,1.7955785E3,4.3656677E2,3.9218323E3,4.445011E2,3.6620007E3,3.8773788E2,4.292047E2,6.4352555E0,7.1003613E3,7.6546674E2,8.1042676E2,7.396596E1,1.62453E3,1.7104846E2,1.4256511E2,2.9400168E2,3.1318823E3,7.8994995E2,1.3584743E2,3.086537E2,3.3526123E3,3.0938852E2,1.558381E2,2.3189978E2,2.8490228E2,1.4430244E2,5.1975517E0,1.2377038E0,6.440306E3,6.600554E2,4.4113422E2,3.2433252E2,5.393459E2,2.7108084E2,3.389131E1,4.0074646E1,1.318056E3,3.0647394E2,1.554266E2,1.5621854E1,1.18525185E2,2.4039928E1,2.2683E2,6.717166E1,2.8406423E3,2.912398E2,7.6942145E2,2.0528511E1,2.2284358E0,1.3361899E2,1.78505E2,1.3014867E2,3.0741765E3,2.7843555E2,2.2547667E2,8.391185E1,1.3378886E1,1.4245921E2,1.8135733E2,5.0542454E1,2.4406E2,4.0842285E1,1.1757501E2,2.6727427E1,5.8976953E3,5.4261096E2,3.8219513E2,2.778603E2,4.1020755E2,3.092668E1,6.481068E1,2.5952185E2,1.5784949E2,3.8149643E2,2.1617326E2,5.4907578E1,2.5483467E1,8.407846E0,2.8948612E1,1.1126034E1,1.2079298E3,1.10126236E2,2.729727E2,3.3501255E1,1.2766444E2,2.7762161E1,9.917882E0,5.703972E0,3.371964E1,8.480555E1,1.7600101E1,6.439827E0,4.1630856E1,1.8519916E2,5.4290066E1,1.2881599E1,2.6089968E3,2.3164555E2,6.089636E1,2.3034346E2,3.034518E2,4.6596964E2,9.393075E0,1.1135436E1,1.0436269E2,2.9256298E1,8.998038E1,8.8524635E1,1.31406355E1,1.1700803E2],"tree_param":{"num_deleted":"0","num_feature":"32","num_nodes":"121","size_leaf_vector":"1"}},{"base_weights":[-2.5134387E-3,-1.2682016E-1,2.4751894E-1,1.5445734E-2,-1.9998825E-1,9.156304E-2,3.1471884E-1,-1.7313961E-2,3.1830254E-1,-3.462677E-1,-1.3654627E-1,5.5541243E-2,3.9752337E-1,3.495994E-1,1.02550335E-1,-5.145078E-2,3.123595E-1,1.20878085E-1,4.0866926E-1,-3.8711062E-1,1.0182474E-2,-9.368233E-2,-3.9839715E-1,1.898223E-2,3.9687133E-1,5.247993E-1,1.1894368E-1,3.2129848E-1,6.0057706E-1,3.1361878E-2,3.9212936E-1,-1.9121918E-1,8.639012E-3,3.7422872E-1,-2.1146622E-1,7.317963E-1,2.7986472E-2,3.9321604E-1,6.9847606E-2,-4.2360824E-1,-2.7983548E-2,1.9686319E-1,-1.398751E-1,-1.2846345E-1,2.1408513E-1,-2.4456632E-1,-4.5175797E-1,-1.7808992E-2,3.8597935E-1,4.4127646E-1,-4.8605227E-1,-1.1467866E-1,6.214066E-1,3.3367267E-1,-1.673898E-1,4.147448E-1,2.3839495E-1,6.5488327E-1,2.755092E-1,3.4297395E-1,-5.6299813E-2,5.353409E-1,1.6901137E-1,-1.1367928E-2,7.689754E-3,2.8099392E-3,-1.3950857E-2,9.140335E-3,2.3704292E-2,-2.8458391E-3,-5.7693895E-2,-1.054025E-2,4.7333892E-2,1.0290117E-2,-1.58547E-2,2.1642474E-2,1.2625012E-2,-2.3936888E-2,-1.0396904E-2,1.2369095E-2,-1.3902952E-2,5.6020054E-3,2.5095237E-2,1.5388544E-3,-1.9778727E-2,-8.092961E-3,9.551827E-3,1.3460422E-2,6.3899794E-4,-1.4728988E-2,5.597246E-3,-9.873624E-3,-2.3688903E-2,-2.512478E-3,1.7955352E-2,3.6033895E-2,1.0433424E-2,1.3554866E-2,3.055628E-2,6.8542506E-3,-5.193335E-2,3.7018885E-3,-4.3741763E-2,4.3493327E-2,1.9781347E-2,2.444667E-2,-1.2721665E-2,-1.4119222E-2,3.1743195E-2,1.908097E-2,3.671758E-2,1.0359471E-2,2.6249377E-2,3.6656704E-2,1.9874476E-2,1.9855274E-2,-4.3432623E-2,4.464847E-2,1.2366543E-2,-5.88713E-3,2.2691807E-2,3.1511568E-2,-6.8314336E-3,-1.4902035E-2,1.9726047E-2],"categories":[],"categories_nodes":[],"categories_segments":[],"categories_sizes":[],"default_left":[0,0,0,0,0,0,0,0,0,0,0,0,0,0,0,0,0,0,0,0,0,0,0,0,0,0,0,0,0,0,0,0,0,0,0,0,0,0,0,0,0,0,0,0,0,0,0,0,0,0,0,0,0,0,0,0,0,0,0,0,0,0,0,0,0,0,0,0,0,0,0,0,0,0,0,0,0,0,0,0,0,0,0,0,0,0,0,0,0,0,0,0,0,0,0,0,0,0,0,0,0,0,0,0,0,0,0,0,0,0,0,0,0,0,0,0,0,0,0,0,0,0,0,0,0],"id":2,"left_children":[1,3,5,7,9,11,13,15,17,19,21,23,25,27,29,31,33,35,37,39,41,43,45,47,49,51,53,55,57,59,61,63,65,67,69,71,73,75,-1,77,79,81,83,85,87,89,91,93,95,97,99,101,103,105,107,109,111,113,115,117,119,121,123,-1,-1,-1,-1,-1,-1,-1,-1,-1,-1,-1,-1,-1,-1,-1,-1,-1,-1,-1,-1,-1,-1,-1,-1,-1,-1,-1,-1,-1,-1,-1,-1,-1,-1,-1,-1,-1,-1,-1,-1,-1,-1,-1,-1,-1,-1,-1,-1,-1,-1,-1,-1,-1,-1,-1,-1,-1,-1,-1,-1,-1,-1],"loss_changes":[6.1569055E2,1.3773187E2,6.8911255E1,4.4599525E1,8.103992E1,2.1825392E1,3.3983032E1,4.567251E1,7.7787056E0,3.8475067E1,6.838481E1,2.2137995E1,7.335167E0,2.7844818E1,1.3396155E1,3.0884335E1,1.2420574E1,7.8788576E0,4.0412292E0,3.1064117E1,7.664798E0,5.611752E1,6.926056E0,2.1664883E1,6.943882E0,8.90041E0,4.158192E0,2.7399353E1,6.860733E0,1.431052E1,4.0078125E0,1.3820358E1,3.520958E1,6.430378E0,5.886279E0,3.9126797E0,7.543011E0,1.5490265E0,0E0,2.5488464E1,1.52042E1,3.0980525E0,6.632897E0,5.02698E1,5.9045105E0,4.0082903E0,3.4635773E0,1.785572E1,8.525673E0,4.573143E0,3.1365051E0,2.8766515E0,6.6296005E0,3.6364012E0,2.8786013E0,1.7371674E1,1.6733284E1,6.5774994E0,8.528564E0,5.828782E0,1.2878451E1,5.037781E0,5.552623E0,0E0,0E0,0E0,0E0,0E0,0E0,0E0,0E0,0E0,0E0,0E0,0E0,0E0,0E0,0E0,0E0,0E0,0E0,0E0,0E0,0E0,0E0,0E0,0E0,0E0,0E0,0E0,0E0,0E0,0E0,0E0,0E0,0E0,0E0,0E0,0E0,0E0,0E0,0E0,0E0,0E0,0E0,0E0,0E0,0E0,0E0,0E0,0E0,0E0,0E0,0E0,0E0,0E0,0E0,0E0,0E0,0E0,0E0,0E0,0E0,0E0,0E0],"parents":[2147483647,0,0,1,1,2,2,3,3,4,4,5,5,6,6,7,7,8,8,9,9,10,10,11,11,12,12,13,13,14,14,15,15,16,16,17,17,18,18,19,19,20,20,21,21,22,22,23,23,24,24,25,25,26,26,27,27,28,28,29,29,30,30,31,31,32,32,33,33,34,34,35,35,36,36,37,37,39,39,40,40,41,41,42,42,43,43,44,44,45,45,46,46,47,47,48,48,49,49,50,50,51,51,52,52,53,53,54,54,55,55,56,56,57,57,58,58,59,59,60,60,61,61,62,62],"right_children":[2,4,6,8,10,12,14,16,18,20,22,24,26,28,30,32,34,36,38,40,42,44,46,48,50,52,54,56,58,60,62,64,66,68,70,72,74,76,-1,78,80,82,84,86,88,90,92,94,96,98,100,102,104,106,108,110,112,114,116,118,120,122,124,-1,-1,-1,-1,-1,-1,-1,-1,-1,-1,-1,-1,-1,-1,-1,-1,-1,-1,-1,-1,-1,-1,-1,-1,-1,-1,-1,-1,-1,-1,-1,-1,-1,-1,-1,-1,-1,-1,-1,-1,-1,-1,-1,-1,-1,-1,-1,-1,-1,-1,-1,-1,-1,-1,-1,-1,-1,-1,-1,-1,-1,-1],"split_conditions":[4E0,3.6E1,1E0,1E0,1E0,1E0,2E0,1E0,1E0,1E0,2E0,1E0,2.61E2,1E0,1E0,1E0,2E0,4.7E1,3.6E2,1E0,5.1E1,1E0,4.5E1,1E0,3.52E2,3.3E1,2.025E3,4.3E1,1E0,3E1,2.025E3,1E0,2E0,1E0,1E0,2.024E3,3E1,1E0,6.9847606E-2,1E0,5.3E1,1E0,2.025E3,1E0,1E0,4.4E1,3.1E1,1E0,3.5E1,1.8E2,4.3E1,1E0,4.2E1,1E0,1E0,1E0,1E0,1E0,1E0,4.4E1,1E0,1E0,1.31E2,-1.1367928E-2,7.689754E-3,2.8099392E-3,-1.3950857E-2,9.140335E-3,2.3704292E-2,-2.8458391E-3,-5.7693895E-2,-1.054025E-2,4.7333892E-2,1.0290117E-2,-1.58547E-2,2.1642474E-2,1.2625012E-2,-2.3936888E-2,-1.0396904E-2,1.2369095E-2,-1.3902952E-2,5.6020054E-3,2.5095237E-2,1.5388544E-3,-1.9778727E-2,-8.092961E-3,9.551827E-3,1.3460422E-2,6.3899794E-4,-1.4728988E-2,5.597246E-3,-9.873624E-3,-2.3688903E-2,-2.512478E-3,1.7955352E-2,3.6033895E-2,1.0433424E-2,1.3554866E-2,3.055628E-2,6.8542506E-3,-5.193335E-2,3.7018885E-3,-4.3741763E-2,4.3493327E-2,1.9781347E-2,2.444667E-2,-1.2721665E-2,-1.4119222E-2,3.1743195E-2,1.908097E-2,3.671758E-2,1.0359471E-2,2.6249377E-2,3.6656704E-2,1.9874476E-2,1.9855274E-2,-4.3432623E-2,4.464847E-2,1.2366543E-2,-5.88713E-3,2.2691807E-2,3.1511568E-2,-6.8314336E-3,-1.4902035E-2,1.9726047E-2],"split_indices":[8,6,4,24,4,31,4,29,4,28,4,30,2,25,16,4,4,2,2,31,6,26,6,26,2,2,1,6,24,6,1,27,4,4,26,1,6,18,0,14,6,12,1,23,14,6,2,29,6,2,6,19,6,12,29,29,27,12,28,2,30,31,2,0,0,0,0,0,0,0,0,0,0,0,0,0,0,0,0,0,0,0,0,0,0,0,0,0,0,0,0,0,0,0,0,0,0,0,0,0,0,0,0,0,0,0,0,0,0,0,0,0,0,0,0,0,0,0,0,0,0,0,0,0,0],"split_type":[0,0,0,0,0,0,0,0,0,0,0,0,0,0,0,0,0,0,0,0,0,0,0,0,0,0,0,0,0,0,0,0,0,0,0,0,0,0,0,0,0,0,0,0,0,0,0,0,0,0,0,0,0,0,0,0,0,0,0,0,0,0,0,0,0,0,0,0,0,0,0,0,0,0,0,0,0,0,0,0,0,0,0,0,0,0,0,0,0,0,0,0,0,0,0,0,0,0,0,0,0,0,0,0,0,0,0,0,0,0,0,0,0,0,0,0,0,0,0,0,0,0,0,0,0],"sum_hessian":[1.98074E4,1.3230289E4,6.5771113E3,4.4936855E3,8.736604E3,1.9813062E3,4.595805E3,4.0559058E3,4.3778012E2,2.6415264E3,6.095077E3,1.7736675E3,2.0763861E2,3.9463728E3,6.494322E2,3.676099E3,3.7980646E2,1.3819739E2,2.995827E2,2.3698923E3,2.7163416E2,5.2388555E3,8.5622186E2,1.603027E3,1.7064061E2,1.4191669E2,6.572193E1,3.5485132E3,3.9785968E2,5.2217255E2,1.2725961E2,1.1046078E3,2.5714915E3,3.3994147E2,3.9864998E1,1.733206E1,1.2086533E2,2.963468E2,3.2359269E0,2.1510994E3,2.1879292E2,1.2090682E2,1.5072733E2,4.707445E3,5.314107E2,2.2195207E2,6.342698E2,1.4578317E3,1.451952E2,1.6294574E2,7.694868E0,1.8601267E1,1.23315414E2,3.7462494E1,2.8259441E1,1.6663037E3,1.8822095E3,3.4003796E2,5.782173E1,1.14005035E2,4.081675E2,7.6656906E1,5.0602707E1,1.0001822E3,1.04425606E2,2.2073438E3,3.641476E2,1.1751007E2,2.224314E2,3.5159466E1,4.705531E0,3.2211416E0,1.4110918E1,8.003029E1,4.0835045E1,2.2960194E2,6.674485E1,1.7122062E3,4.3889307E2,1.0413624E2,1.14656685E2,9.567086E1,2.5235958E1,9.092451E1,5.980282E1,4.262409E3,4.450355E2,4.169109E2,1.1449981E2,1.9479837E2,2.7153706E1,5.1342335E1,5.829274E2,1.3431E3,1.14731804E2,4.9220425E1,9.597478E1,8.269059E1,8.025515E1,3.9700778E0,3.72479E0,1.56248455E1,2.976421E0,5.7350815E1,6.59646E1,2.9771431E1,7.691064E0,2.528335E1,2.9760911E0,1.5118075E3,1.5449617E2,1.6989435E3,1.8326598E2,2.5934552E2,8.069243E1,5.2857235E1,4.9644957E0,1.5653444E1,9.8351585E1,3.649774E2,4.3190117E1,6.722589E1,9.431015E0,1.6372353E1,3.4230354E1],"tree_param":{"num_deleted":"0","num_feature":"32","num_nodes":"125","size_leaf_vector":"1"}},{"base_weights":[-3.3861871E-3,4.0358517E-1,-1.0557276E-1,2.8066817E-1,4.5693806E-1,-2.6736656E-1,-3.5746396E-2,2.4482183E-1,4.1581923E-1,6.518272E-1,4.223629E-1,-1.9054279E-1,-4.31163E-1,8.0883205E-3,-3.0007762E-1,2.2328545E-1,4.4496605E-1,1.9368596E-1,4.7460938E-1,6.03807E-1,1.0433291E0,3.943079E-1,6.689731E-1,-2.2376594E-1,1.1741166E-1,-3.6113346E-1,-6.3805854E-1,6.688995E-2,-1.6698353E-1,-1.7151137E-1,-4.3801346E-1,4.5214862E-1,2.0490588E-1,2.912824E-1,9.617278E-1,-3.4768766E-1,3.7478685E-1,9.366171E-1,4.250408E-1,5.4251754E-1,8.568816E-1,1.2070557E0,4.550418E-1,3.540691E-1,5.60266E-1,-7.710069E-2,7.077154E-1,-2.6087976E-1,1.1690888E-1,1.8206152E-1,-2.3922133E-1,-4.0205538E-1,3.8789283E-2,-8.8569576E-1,-5.750031E-1,3.6696948E-2,3.35724E-1,-2.0858632E-1,2.1066536E-1,-2.1437933E-1,1.9405334E-1,-4.693885E-1,-1.4314714E-1,1.8849319E-2,6.536303E-2,-1.4546878E-2,1.1003717E-2,-3.673072E-2,1.6917048E-2,5.808891E-2,-1.28632905E-2,8.473716E-3,-5.183157E-2,3.2444883E-2,-4.5998823E-3,3.529588E-2,6.9077805E-2,-2.492749E-3,2.4444496E-2,2.488253E-2,4.576278E-2,3.183185E-2,6.4194664E-2,6.503946E-2,1.2173547E-2,3.2092337E-2,-2.882564E-2,1.563091E-2,2.6645437E-2,2.6380723E-2,4.0892076E-2,-2.1504166E-2,2.3302866E-2,4.162113E-2,2.5059322E-2,-1.5005173E-2,6.6696615E-3,2.340713E-2,3.9389168E-4,4.5086625E-3,2.554605E-2,-1.8995134E-2,4.2207073E-2,-2.2095542E-2,-4.211183E-4,6.896946E-3,-2.596329E-2,-1.010043E-2,-4.7965094E-2,-3.08369E-2,-6.2229326E-3,1.7757213E-4,1.7851502E-2,1.0734239E-2,2.0865155E-2,-1.34210335E-2,1.2023043E-3,6.7179776E-3,2.9344944E-2,-1.2171801E-2,3.4639072E-3,1.8071113E-2,-6.003886E-3,8.443021E-3,-2.3984622E-2,-2.3648698E-2,6.468688E-3],"categories":[],"categories_nodes":[],"categories_segments":[],"categories_sizes":[],"default_left":[0,0,0,0,0,0,0,0,0,0,0,0,0,0,0,0,0,0,0,0,0,0,0,0,0,0,0,0,0,0,0,0,0,0,0,0,0,0,0,0,0,0,0,0,0,0,0,0,0,0,0,0,0,0,0,0,0,0,0,0,0,0,0,0,0,0,0,0,0,0,0,0,0,0,0,0,0,0,0,0,0,0,0,0,0,0,0,0,0,0,0,0,0,0,0,0,0,0,0,0,0,0,0,0,0,0,0,0,0,0,0,0,0,0,0,0,0,0,0,0,0,0,0,0,0,0,0],"id":3,"left_children":[1,3,5,7,9,11,13,15,17,19,21,23,25,27,29,31,33,35,37,39,41,43,45,47,49,51,53,55,57,59,61,63,65,67,69,71,73,75,77,79,81,83,85,87,89,91,93,95,97,99,101,103,105,107,109,111,113,115,117,119,121,123,125,-1,-1,-1,-1,-1,-1,-1,-1,-1,-1,-1,-1,-1,-1,-1,-1,-1,-1,-1,-1,-1,-1,-1,-1,-1,-1,-1,-1,-1,-1,-1,-1,-1,-1,-1,-1,-1,-1,-1,-1,-1,-1,-1,-1,-1,-1,-1,-1,-1,-1,-1,-1,-1,-1,-1,-1,-1,-1,-1,-1,-1,-1,-1,-1],"loss_changes":[8.226714E2,2.5908142E1,1.7862302E2,5.732521E0,1.8369019E1,5.98981E1,1.2799268E2,4.0138435E0,3.1862335E0,7.173355E0,1.6014618E1,3.3242317E1,2.1807861E1,9.756052E1,2.7789612E1,3.539814E0,7.0024033E0,5.4464064E0,4.1317215E0,5.30661E0,3.6863327E0,1.392514E1,6.959549E0,3.708603E1,7.3477087E0,1.8651337E1,5.4766235E0,5.7569893E1,3.747999E1,1.2811911E1,6.9395905E0,3.5798693E0,6.089916E0,3.7299972E0,5.3188343E0,5.203168E0,5.3199434E0,9.067421E-1,5.496376E0,4.599678E0,5.8429604E0,2.7357368E0,2.5242627E0,1.2472214E1,3.025177E0,2.6342916E0,5.434334E0,4.091571E1,1.1048569E1,8.075082E0,7.79599E0,1.6203949E1,5.970706E0,3.6282768E0,5.72213E0,6.772769E1,6.982109E0,2.9888832E1,6.7234297E0,6.03236E0,4.5677824E0,4.5799103E0,6.7374744E0,0E0,0E0,0E0,0E0,0E0,0E0,0E0,0E0,0E0,0E0,0E0,0E0,0E0,0E0,0E0,0E0,0E0,0E0,0E0,0E0,0E0,0E0,0E0,0E0,0E0,0E0,0E0,0E0,0E0,0E0,0E0,0E0,0E0,0E0,0E0,0E0,0E0,0E0,0E0,0E0,0E0,0E0,0E0,0E0,0E0,0E0,0E0,0E0,0E0,0E0,0E0,0E0,0E0,0E0,0E0,0E0,0E0,0E0,0E0,0E0,0E0,0E0,0E0,0E0],"parents":[2147483647,0,0,1,1,2,2,3,3,4,4,5,5,6,6,7,7,8,8,9,9,10,10,11,11,12,12,13,13,14,14,15,15,16,16,17,17,18,18,19,19,20,20,21,21,22,22,23,23,24,24,25,25,26,26,27,27,28,28,29,29,30,30,31,31,32,32,33,33,34,34,35,35,36,36,37,37,38,38,39,39,40,40,41,41,42,42,43,43,44,44,45,45,46,46,47,47,48,48,49,49,50,50,51,51,52,52,53,53,54,54,55,55,56,56,57,57,58,58,59,59,60,60,61,61,62,62],"right_children":[2,4,6,8,10,12,14,16,18,20,22,24,26,28,30,32,34,36,38,40,42,44,46,48,50,52,54,56,58,60,62,64,66,68,70,72,74,76,78,80,82,84,86,88,90,92,94,96,98,100,102,104,106,108,110,112,114,116,118,120,122,124,126,-1,-1,-1,-1,-1,-1,-1,-1,-1,-1,-1,-1,-1,-1,-1,-1,-1,-1,-1,-1,-1,-1,-1,-1,-1,-1,-1,-1,-1,-1,-1,-1,-1,-1,-1,-1,-1,-1,-1,-1,-1,-1,-1,-1,-1,-1,-1,-1,-1,-1,-1,-1,-1,-1,-1,-1,-1,-1,-1,-1,-1,-1,-1,-1],"split_conditions":[1E0,1E0,1E0,1E0,2.6E1,5.4E1,2E0,1E0,1E0,1E0,1E0,1E0,4E0,4E0,4.5E1,2.7E1,2.98E2,1.04E2,3.4E1,1E0,1E0,1E0,2.8E1,1E0,1E0,1E0,2.024E3,1E0,1E0,1E0,1E0,6.7E1,3.7E1,1E1,1E0,6.5E1,2.7E2,2.6E1,2.5E1,1E0,2.4E2,4E0,1E0,1E0,1E0,2.47E2,2.21E2,1E0,2E0,1E0,5E1,1E0,1E0,5.6E1,1E0,1E0,2E0,1E0,4E0,1E0,3.6E1,7E0,2E0,1.8849319E-2,6.536303E-2,-1.4546878E-2,1.1003717E-2,-3.673072E-2,1.6917048E-2,5.808891E-2,-1.28632905E-2,8.473716E-3,-5.183157E-2,3.2444883E-2,-4.5998823E-3,3.529588E-2,6.9077805E-2,-2.492749E-3,2.4444496E-2,2.488253E-2,4.576278E-2,3.183185E-2,6.4194664E-2,6.503946E-2,1.2173547E-2,3.2092337E-2,-2.882564E-2,1.563091E-2,2.6645437E-2,2.6380723E-2,4.0892076E-2,-2.1504166E-2,2.3302866E-2,4.162113E-2,2.5059322E-2,-1.5005173E-2,6.6696615E-3,2.340713E-2,3.9389168E-4,4.5086625E-3,2.554605E-2,-1.8995134E-2,4.2207073E-2,-2.2095542E-2,-4.211183E-4,6.896946E-3,-2.596329E-2,-1.010043E-2,-4.7965094E-2,-3.08369E-2,-6.2229326E-3,1.7757213E-4,1.7851502E-2,1.0734239E-2,2.0865155E-2,-1.34210335E-2,1.2023043E-3,6.7179776E-3,2.9344944E-2,-1.2171801E-2,3.4639072E-3,1.8071113E-2,-6.003886E-3,8.443021E-3,-2.3984622E-2,-2.3648698E-2,6.468688E-3],"split_indices":[9,4,4,12,6,6,4,27,5,23,24,22,9,9,6,2,2,2,2,14,19,13,6,26,24,25,1,27,23,24,23,6,2,2,25,2,2,2,6,26,2,7,27,21,25,2,2,27,9,18,6,23,23,6,27,23,5,21,7,22,6,2,5,0,0,0,0,0,0,0,0,0,0,0,0,0,0,0,0,0,0,0,0,0,0,0,0,0,0,0,0,0,0,0,0,0,0,0,0,0,0,0,0,0,0,0,0,0,0,0,0,0,0,0,0,0,0,0,0,0,0,0,0,0,0,0,0],"split_type":[0,0,0,0,0,0,0,0,0,0,0,0,0,0,0,0,0,0,0,0,0,0,0,0,0,0,0,0,0,0,0,0,0,0,0,0,0,0,0,0,0,0,0,0,0,0,0,0,0,0,0,0,0,0,0,0,0,0,0,0,0,0,0,0,0,0,0,0,0,0,0,0,0,0,0,0,0,0,0,0,0,0,0,0,0,0,0,0,0,0,0,0,0,0,0,0,0,0,0,0,0,0,0,0,0,0,0,0,0,0,0,0,0,0,0,0,0,0,0,0,0,0,0,0,0,0,0],"sum_hessian":[1.977991E4,3.9691807E3,1.5810729E4,1.203276E3,2.7659045E3,4.765596E3,1.1045133E4,9.5325415E2,2.500218E2,4.1407034E2,2.3518342E3,3.2455383E3,1.520058E3,9.474861E3,1.5702709E3,8.625551E2,9.069903E1,5.3221962E1,1.9679984E2,3.7109537E2,4.2974983E1,2.1139456E3,2.3788873E2,2.9297415E3,3.1579688E2,1.1377129E3,3.8234512E2,7.0931074E3,2.3817542E3,8.1390015E2,7.563707E2,6.2366333E1,8.001888E2,7.111367E1,1.9585358E1,1.3110439E1,4.0111523E1,1.7334726E1,1.794651E2,3.0127618E2,6.9819176E1,3.279576E1,1.0179221E1,1.7039366E3,4.1000888E2,1.1694454E1,2.2619427E2,2.642136E3,2.876055E2,2.6774924E2,4.8047653E1,1.0320985E3,1.0561444E2,7.494966E1,3.0739545E2,6.3779326E3,7.15175E2,2.1458132E3,2.3594077E2,7.288456E2,8.5054535E1,6.830946E2,7.327609E1,5.865184E1,3.7144904E0,2.3212507E1,7.769763E2,2.4781566E0,6.863551E1,1.6864622E1,2.720735E0,7.919558E0,5.1908813E0,2.5025568E1,1.5085956E1,1.3119078E1,4.21565E0,2.12952E1,1.581699E2,2.709917E2,3.028448E1,4.770483E1,2.2114347E1,2.9569418E1,3.2263412E0,8.938356E0,1.2408656E0,1.3855465E3,3.183901E2,3.6658694E2,4.342195E1,7.214282E0,4.480172E0,1.3914474E2,8.704952E1,2.403287E3,2.3884875E2,6.734997E1,2.2025552E2,2.1027066E2,5.747857E1,4.3100163E1,4.9474916E0,9.370948E2,9.500369E1,9.032009E1,1.5294347E1,7.6487794E0,6.730088E1,2.809972E2,2.6398281E1,5.7807935E3,5.9713916E2,2.8940915E2,4.2576587E2,1.7066893E3,4.3912393E2,1.9728543E2,3.865533E1,6.612515E2,6.7594055E1,5.539145E1,2.966309E1,1.0608202E1,6.7248645E2,3.2819607E1,4.045649E1],"tree_param":{"num_deleted":"0","num_feature":"32","num_nodes":"127","size_leaf_vector":"1"}},{"base_weights":[2.1537526E-3,-1.14648074E-1,2.3569354E-1,1.0869872E-2,-1.8495615E-1,9.275356E-2,2.9663053E-1,-1.9587163E-2,2.9151133E-1,-3.276278E-1,-1.2362442E-1,5.7149522E-2,3.8760215E-1,4.0305018E-1,2.3662585E-1,-5.007949E-2,2.5612283E-1,9.3950115E-2,3.7702015E-1,-3.6512256E-1,4.35285E-3,-8.608777E-2,-3.5262305E-1,2.2452094E-2,3.9943343E-1,5.383256E-1,1.4237443E-1,3.765474E-1,6.5089774E-1,2.1037808E-1,4.7714776E-1,-8.061173E-2,2.619092E-1,2.9889256E-1,-1.153493E-1,3.303947E-1,-1.2997964E-1,4.3564117E-1,1.3145988E-1,-4.235126E-1,-1.3988619E-1,6.396662E-1,-5.2109208E-2,-1.1778885E-1,2.0054E-1,-2.0804335E-1,-3.9858964E-1,-7.574815E-3,3.2870534E-1,4.351466E-1,-9.616475E-1,2.9813847E-1,6.864282E-1,2.7900922E-1,-3.7560204E-1,3.5167608E-1,6.255679E-1,1.0097705E0,5.011285E-1,1.8130596E-1,4.7853026E-1,3.477491E-1,6.011088E-1,-5.523147E-3,1.1971613E-2,1.5111093E-3,1.8175334E-2,8.368732E-3,1.9346818E-2,1.2230693E-2,-3.06951E-2,4.1710846E-2,1.25760855E-2,-3.4550376E-2,-8.0860435E-4,2.0495715E-2,5.135427E-2,1.3147622E-2,-2.3967778E-2,-2.3054136E-2,-2.7453408E-3,-9.410307E-3,1.2251581E-2,4.699345E-2,-2.3570081E-2,2.3075152E-6,-1.8686276E-2,-7.6142675E-3,1.00203315E-2,1.3539316E-2,-5.024835E-3,-1.46191465E-2,6.304428E-3,-2.204906E-2,-1.1345352E-2,-2.0380097E-3,1.7333444E-2,2.0475611E-2,-1.2320108E-3,2.7488107E-2,1.2027229E-2,-6.251581E-2,-5.7796943E-3,2.3996817E-2,-1.1074987E-2,4.811985E-2,2.3154784E-2,2.8788386E-2,2.1323878E-3,-2.8946076E-2,1.7545475E-2,1.6473237E-2,2.8304398E-2,2.7234329E-2,5.344024E-2,5.471719E-2,1.1065242E-2,1.0264547E-2,3.89749E-2,1.0577257E-2,-4.7709604E-4,3.185953E-2,1.6674032E-2,3.1804428E-2,1.3282525E-2,1.6614627E-2,3.9212793E-2],"categories":[],"categories_nodes":[],"categories_segments":[],"categories_sizes":[],"default_left":[0,0,0,0,0,0,0,0,0,0,0,0,0,0,0,0,0,0,0,0,0,0,0,0,0,0,0,0,0,0,0,0,0,0,0,0,0,0,0,0,0,0,0,0,0,0,0,0,0,0,0,0,0,0,0,0,0,0,0,0,0,0,0,0,0,0,0,0,0,0,0,0,0,0,0,0,0,0,0,0,0,0,0,0,0,0,0,0,0,0,0,0,0,0,0,0,0,0,0,0,0,0,0,0,0,0,0,0,0,0,0,0,0,0,0,0,0,0,0,0,0,0,0,0,0,0,0],"id":4,"left_children":[1,3,5,7,9,11,13,15,17,19,21,23,25,27,29,31,33,35,37,39,41,43,45,47,49,51,53,55,57,59,61,63,65,67,69,71,73,75,77,79,81,83,85,87,89,91,93,95,97,99,101,103,105,107,109,111,113,115,117,119,121,123,125,-1,-1,-1,-1,-1,-1,-1,-1,-1,-1,-1,-1,-1,-1,-1,-1,-1,-1,-1,-1,-1,-1,-1,-1,-1,-1,-1,-1,-1,-1,-1,-1,-1,-1,-1,-1,-1,-1,-1,-1,-1,-1,-1,-1,-1,-1,-1,-1,-1,-1,-1,-1,-1,-1,-1,-1,-1,-1,-1,-1,-1,-1,-1,-1],"loss_changes":[5.406147E2,1.16591064E2,5.7525665E1,4.055727E1,7.405777E1,2.0725357E1,2.9483704E1,3.6001034E1,7.812042E0,3.1683594E1,5.089003E1,2.0948076E1,7.787573E0,1.0715973E1,1.861441E1,3.6745354E1,6.809778E0,7.5432262E0,4.6049347E0,3.0017914E1,9.334071E0,4.628159E1,5.4593124E0,1.4745675E1,8.310268E0,4.4700966E0,5.9331417E0,9.131332E0,8.084343E0,2.0763168E1,4.4568405E0,3.3582695E1,8.083864E0,4.3666077E0,8.181301E0,2.5394545E0,4.6799083E0,3.5507927E0,5.254239E0,2.5118835E1,8.830696E0,7.5267954E0,4.0097528E0,5.035338E1,1.0756037E1,5.765086E0,4.4971924E0,1.719001E1,4.0982313E0,3.4117508E0,9.453697E-1,5.0085573E0,4.5171585E0,4.5863647E0,2.805169E0,6.3619537E0,4.2870255E0,2.8302803E0,9.28997E0,1.3936501E1,5.793846E0,3.2562199E0,6.986004E0,0E0,0E0,0E0,0E0,0E0,0E0,0E0,0E0,0E0,0E0,0E0,0E0,0E0,0E0,0E0,0E0,0E0,0E0,0E0,0E0,0E0,0E0,0E0,0E0,0E0,0E0,0E0,0E0,0E0,0E0,0E0,0E0,0E0,0E0,0E0,0E0,0E0,0E0,0E0,0E0,0E0,0E0,0E0,0E0,0E0,0E0,0E0,0E0,0E0,0E0,0E0,0E0,0E0,0E0,0E0,0E0,0E0,0E0,0E0,0E0,0E0,0E0,0E0,0E0],"parents":[2147483647,0,0,1,1,2,2,3,3,4,4,5,5,6,6,7,7,8,8,9,9,10,10,11,11,12,12,13,13,14,14,15,15,16,16,17,17,18,18,19,19,20,20,21,21,22,22,23,23,24,24,25,25,26,26,27,27,28,28,29,29,30,30,31,31,32,32,33,33,34,34,35,35,36,36,37,37,38,38,39,39,40,40,41,41,42,42,43,43,44,44,45,45,46,46,47,47,48,48,49,49,50,50,51,51,52,52,53,53,54,54,55,55,56,56,57,57,58,58,59,59,60,60,61,61,62,62],"right_children":[2,4,6,8,10,12,14,16,18,20,22,24,26,28,30,32,34,36,38,40,42,44,46,48,50,52,54,56,58,60,62,64,66,68,70,72,74,76,78,80,82,84,86,88,90,92,94,96,98,100,102,104,106,108,110,112,114,116,118,120,122,124,126,-1,-1,-1,-1,-1,-1,-1,-1,-1,-1,-1,-1,-1,-1,-1,-1,-1,-1,-1,-1,-1,-1,-1,-1,-1,-1,-1,-1,-1,-1,-1,-1,-1,-1,-1,-1,-1,-1,-1,-1,-1,-1,-1,-1,-1,-1,-1,-1,-1,-1,-1,-1,-1,-1,-1,-1,-1,-1,-1,-1,-1,-1,-1,-1],"split_conditions":[4E0,3.7E1,1E0,1E0,1E0,1E0,3.7E1,1E0,1E0,1E0,2E0,1E0,2.025E3,1E0,1E0,1E0,2E0,2.7E1,4E0,1E0,3E1,1E0,4.5E1,1E0,3.59E2,2E0,1E0,1E0,1.14E2,1E0,1E0,1E0,1E0,2E0,2.025E3,1.9E1,2.024E3,3.53E2,3.4E1,1E0,1E0,6.6E1,1E0,1E0,3E2,1E0,1E0,1E0,3E0,5.1E1,4.8E1,5.9E1,4.1E1,1.79E2,1E0,1E0,1E0,2E0,1E0,2E0,1E0,2.024E3,2E0,-5.523147E-3,1.1971613E-2,1.5111093E-3,1.8175334E-2,8.368732E-3,1.9346818E-2,1.2230693E-2,-3.06951E-2,4.1710846E-2,1.25760855E-2,-3.4550376E-2,-8.0860435E-4,2.0495715E-2,5.135427E-2,1.3147622E-2,-2.3967778E-2,-2.3054136E-2,-2.7453408E-3,-9.410307E-3,1.2251581E-2,4.699345E-2,-2.3570081E-2,2.3075152E-6,-1.8686276E-2,-7.6142675E-3,1.00203315E-2,1.3539316E-2,-5.024835E-3,-1.46191465E-2,6.304428E-3,-2.204906E-2,-1.1345352E-2,-2.0380097E-3,1.7333444E-2,2.0475611E-2,-1.2320108E-3,2.7488107E-2,1.2027229E-2,-6.251581E-2,-5.7796943E-3,2.3996817E-2,-1.1074987E-2,4.811985E-2,2.3154784E-2,2.8788386E-2,2.1323878E-3,-2.8946076E-2,1.7545475E-2,1.6473237E-2,2.8304398E-2,2.7234329E-2,5.344024E-2,5.471719E-2,1.1065242E-2,1.0264547E-2,3.89749E-2,1.0577257E-2,-4.7709604E-4,3.185953E-2,1.6674032E-2,3.1804428E-2,1.3282525E-2,1.6614627E-2,3.9212793E-2],"split_indices":[8,6,4,24,4,31,6,27,4,22,4,24,1,23,23,31,4,6,5,14,2,27,6,30,2,5,15,28,2,27,7,22,4,5,1,6,1,2,6,30,28,6,31,31,2,19,14,22,7,6,6,6,6,2,13,25,30,4,7,4,7,1,5,0,0,0,0,0,0,0,0,0,0,0,0,0,0,0,0,0,0,0,0,0,0,0,0,0,0,0,0,0,0,0,0,0,0,0,0,0,0,0,0,0,0,0,0,0,0,0,0,0,0,0,0,0,0,0,0,0,0,0,0,0,0,0,0],"split_type":[0,0,0,0,0,0,0,0,0,0,0,0,0,0,0,0,0,0,0,0,0,0,0,0,0,0,0,0,0,0,0,0,0,0,0,0,0,0,0,0,0,0,0,0,0,0,0,0,0,0,0,0,0,0,0,0,0,0,0,0,0,0,0,0,0,0,0,0,0,0,0,0,0,0,0,0,0,0,0,0,0,0,0,0,0,0,0,0,0,0,0,0,0,0,0,0,0,0,0,0,0,0,0,0,0,0,0,0,0,0,0,0,0,0,0,0,0,0,0,0,0,0,0,0,0,0,0],"sum_hessian":[1.9816807E4,1.3210339E4,6.606467E3,4.7432563E3,8.467083E3,1.9753673E3,4.6310996E3,4.279723E3,4.6353314E2,2.5442446E3,5.9228384E3,1.7636E3,2.117673E2,1.6676927E3,2.963407E3,3.8542751E3,4.2544772E2,1.4065646E2,3.2287668E2,2.2859624E3,2.582822E2,5.0898965E3,8.329421E2,1.6022455E3,1.6135452E2,1.3041534E2,8.135195E1,1.5088661E3,1.5882655E2,2.6735242E3,2.8988275E2,3.5113816E3,3.4289368E2,3.8169623E2,4.3751503E1,6.8185165E1,7.247129E1,2.6002783E2,6.2848846E1,1.8146531E3,4.7130933E2,2.0237696E1,2.380445E2,4.583545E3,5.0635175E2,2.0226852E2,6.306736E2,1.460067E3,1.4217847E2,1.5789192E2,3.462607E0,5.089263E1,7.952271E1,6.473669E1,1.6615267E1,1.3740436E3,1.3482257E2,4.5075573E1,1.1375098E2,2.4135334E3,2.599907E2,1.4369247E2,1.4619026E2,3.212408E3,2.989736E2,1.0492223E2,2.3797144E2,1.5422272E2,2.2747351E2,2.5702927E1,1.8048578E1,7.933178E0,6.0251987E1,1.1366595E1,6.11047E1,2.5081102E2,9.216816E0,5.2184414E1,1.0664432E1,1.6465753E3,1.680778E2,4.191972E2,5.211211E1,1.6054081E1,4.183615E0,2.0568857E2,3.2355923E1,4.1357026E3,4.4784225E2,4.1063208E2,9.5719666E1,1.6160268E2,4.0665836E1,5.0452786E2,1.2614569E2,1.3358135E3,1.2425344E2,1.15586044E2,2.6592426E1,9.821864E1,5.9673275E1,2.2254684E0,1.2371385E0,3.7758904E1,1.3133727E1,3.408952E1,4.5433193E1,2.8064701E1,3.667198E1,1.3140854E1,3.4744134E0,1.2473635E3,1.2668009E2,1.1590182E2,1.8920755E1,4.035864E1,4.716935E0,5.5987576E1,5.7763397E1,2.0833289E3,3.3020468E2,1.2254922E2,1.3744147E2,3.0350447E1,1.13342026E2,6.038047E1,8.58098E1],"tree_param":{"num_deleted":"0","num_feature":"32","num_nodes":"127","size_leaf_vector":"1"}},{"base_weights":[-3.88025E-3,3.732782E-1,-9.916761E-2,3.5141698E-1,5.541322E-1,4.4442445E-2,-1.7304294E-1,3.2947567E-1,5.7290983E-1,7.7912223E-1,5.092263E-1,1.337639E-2,3.292541E-1,-2.0627438E-1,1.2517388E-1,3.0761325E-1,5.656822E-1,6.33976E-1,2.118187E-1,9.360451E-1,2.931925E-1,7.990387E-1,4.6257368E-1,-1.8834278E-2,3.1446812E-1,3.6490595E-1,4.996978E-2,-2.7020914E-2,-2.6573217E-1,1.416449E-1,-3.739793E-1,2.8693014E-1,5.3325015E-1,5.149132E-1,9.294285E-1,6.554514E-1,-2.8229216E-1,7.8318644E-1,9.079647E-2,-2.8817132E-2,9.8439974E-1,5.287489E-2,1.3574724E-1,1.2449057E0,6.736829E-1,-1.3493818E-1,5.069075E-1,-4.932377E-2,2.8787062E-1,2.6851207E-1,6.7683434E-1,3.1508866E-1,5.305795E-1,-3.821551E-1,2.1122763E-1,-7.99638E-2,1.844822E-1,-2.9879975E-1,3.9645698E-2,1.8956456E-1,-5.2601774E-3,2.1433853E-1,-5.867164E-1,1.33705465E-2,2.5197018E-2,2.944758E-2,8.881077E-3,3.6026057E-2,2.0489408E-2,5.4051407E-2,1.754448E-2,5.0659675E-2,3.13029E-2,-2.9213652E-2,2.4657056E-2,-1.4514561E-2,6.857588E-2,-3.632829E-2,9.055098E-3,4.2089924E-2,7.7766545E-2,1.3391155E-2,-2.741128E-2,6.791333E-2,1.375988E-2,2.613101E-2,6.722597E-2,-2.3187056E-2,1.9288458E-2,2.7006015E-2,4.408487E-3,-4.027269E-3,1.5552255E-2,1.9005472E-2,1.3655836E-3,1.6050214E-2,-1.2585932E-3,6.414384E-2,2.443222E-2,2.6235675E-2,1.2318124E-2,6.1232235E-2,2.192138E-2,-2.8310275E-2,2.8468866E-2,1.6329503E-2,-1.0693647E-2,-5.8673113E-3,1.46975545E-2,4.1203476E-3,1.4584692E-2,-1.6584758E-2,1.7751852E-3,-7.1347686E-3,5.2240705E-3,6.0768267E-3,1.6137127E-2,-2.909122E-3,1.5707413E-2,3.296734E-2,-5.7883024E-2,-3.7930604E-2,1.8660715E-2],"categories":[],"categories_nodes":[],"categories_segments":[],"categories_sizes":[],"default_left":[0,0,0,0,0,0,0,0,0,0,0,0,0,0,0,0,0,0,0,0,0,0,0,0,0,0,0,0,0,0,0,0,0,0,0,0,0,0,0,0,0,0,0,0,0,0,0,0,0,0,0,0,0,0,0,0,0,0,0,0,0,0,0,0,0,0,0,0,0,0,0,0,0,0,0,0,0,0,0,0,0,0,0,0,0,0,0,0,0,0,0,0,0,0,0,0,0,0,0,0,0,0,0,0,0,0,0,0,0,0,0,0,0,0,0,0,0,0,0,0,0,0,0],"id":5,"left_children":[1,3,5,7,9,11,13,15,17,19,21,23,25,27,29,31,33,35,37,39,41,43,45,47,49,51,53,55,57,59,61,63,65,67,69,71,73,75,77,-1,79,-1,81,83,85,87,89,91,93,95,97,99,101,103,105,107,109,111,113,115,117,119,121,-1,-1,-1,-1,-1,-1,-1,-1,-1,-1,-1,-1,-1,-1,-1,-1,-1,-1,-1,-1,-1,-1,-1,-1,-1,-1,-1,-1,-1,-1,-1,-1,-1,-1,-1,-1,-1,-1,-1,-1,-1,-1,-1,-1,-1,-1,-1,-1,-1,-1,-1,-1,-1,-1,-1,-1,-1,-1,-1,-1],"loss_changes":[7.104359E2,1.5568665E1,1.6743292E2,1.7111298E1,3.9298706E0,4.7432285E1,1.03297516E2,1.6564178E1,6.9108276E0,5.0148087E0,4.496025E0,4.6898224E1,5.23143E0,9.992615E1,8.647976E0,1.3702454E1,4.570236E0,5.5526047E0,3.2285173E0,4.3683968E0,2.0692039E0,1.8733883E0,8.342514E0,4.0867584E1,7.6005516E0,3.6903877E0,4.320496E0,2.6178572E1,7.1110565E1,7.130419E0,4.3397317E0,1.1394302E1,4.810585E0,4.9387665E0,2.4485645E0,2.1715317E0,1.9146392E0,5.5829253E0,3.1216235E0,0E0,2.821331E0,0E0,1.6278449E0,6.671219E-1,3.3563442E0,4.007911E0,3.9992065E0,4.474417E1,9.48708E0,6.4270973E0,5.29681E0,5.0830917E0,6.2804737E0,3.280462E0,2.2743485E0,2.616566E1,5.0985622E0,6.9875854E1,8.158038E0,6.879593E0,4.245463E0,6.669818E0,4.407568E0,0E0,0E0,0E0,0E0,0E0,0E0,0E0,0E0,0E0,0E0,0E0,0E0,0E0,0E0,0E0,0E0,0E0,0E0,0E0,0E0,0E0,0E0,0E0,0E0,0E0,0E0,0E0,0E0,0E0,0E0,0E0,0E0,0E0,0E0,0E0,0E0,0E0,0E0,0E0,0E0,0E0,0E0,0E0,0E0,0E0,0E0,0E0,0E0,0E0,0E0,0E0,0E0,0E0,0E0,0E0,0E0,0E0,0E0,0E0,0E0],"parents":[2147483647,0,0,1,1,2,2,3,3,4,4,5,5,6,6,7,7,8,8,9,9,10,10,11,11,12,12,13,13,14,14,15,15,16,16,17,17,18,18,19,19,20,20,21,21,22,22,23,23,24,24,25,25,26,26,27,27,28,28,29,29,30,30,31,31,32,32,33,33,34,34,35,35,36,36,37,37,38,38,40,40,42,42,43,43,44,44,45,45,46,46,47,47,48,48,49,49,50,50,51,51,52,52,53,53,54,54,55,55,56,56,57,57,58,58,59,59,60,60,61,61,62,62],"right_children":[2,4,6,8,10,12,14,16,18,20,22,24,26,28,30,32,34,36,38,40,42,44,46,48,50,52,54,56,58,60,62,64,66,68,70,72,74,76,78,-1,80,-1,82,84,86,88,90,92,94,96,98,100,102,104,106,108,110,112,114,116,118,120,122,-1,-1,-1,-1,-1,-1,-1,-1,-1,-1,-1,-1,-1,-1,-1,-1,-1,-1,-1,-1,-1,-1,-1,-1,-1,-1,-1,-1,-1,-1,-1,-1,-1,-1,-1,-1,-1,-1,-1,-1,-1,-1,-1,-1,-1,-1,-1,-1,-1,-1,-1,-1,-1,-1,-1,-1,-1,-1,-1,-1],"split_conditions":[1E0,1E0,3.6E1,1E0,5.4E1,1E0,1E0,1E0,1E0,1E0,2.6E1,1E0,3.22E2,2E0,3.56E2,1E0,6.5E1,7E1,6.1E1,1.9E1,2.5E1,2.024E3,2.9E1,1E0,3.26E2,1E0,3.33E2,1E0,1E0,4E0,2E0,1E0,1E0,3.4E1,3E2,2.7E1,1E0,1.9E1,9.7E1,-2.8817132E-2,5.8E1,5.287489E-2,1E0,1E0,1E0,2.44E2,6.8E1,1E0,4E0,2.75E2,2E0,2E0,3E1,1E0,1E0,1E0,1E0,1E0,1.01E2,3E0,1E0,5.9E1,1E0,1.33705465E-2,2.5197018E-2,2.944758E-2,8.881077E-3,3.6026057E-2,2.0489408E-2,5.4051407E-2,1.754448E-2,5.0659675E-2,3.13029E-2,-2.9213652E-2,2.4657056E-2,-1.4514561E-2,6.857588E-2,-3.632829E-2,9.055098E-3,4.2089924E-2,7.7766545E-2,1.3391155E-2,-2.741128E-2,6.791333E-2,1.375988E-2,2.613101E-2,6.722597E-2,-2.3187056E-2,1.9288458E-2,2.7006015E-2,4.408487E-3,-4.027269E-3,1.5552255E-2,1.9005472E-2,1.3655836E-3,1.6050214E-2,-1.2585932E-3,6.414384E-2,2.443222E-2,2.6235675E-2,1.2318124E-2,6.1232235E-2,2.192138E-2,-2.8310275E-2,2.8468866E-2,1.6329503E-2,-1.0693647E-2,-5.8673113E-3,1.46975545E-2,4.1203476E-3,1.4584692E-2,-1.6584758E-2,1.7751852E-3,-7.1347686E-3,5.2240705E-3,6.0768267E-3,1.6137127E-2,-2.909122E-3,1.5707413E-2,3.296734E-2,-5.7883024E-2,-3.7930604E-2,1.8660715E-2],"split_indices":[9,30,6,28,2,29,23,23,27,17,6,22,2,9,2,29,6,6,2,6,6,1,6,26,2,16,2,21,26,9,9,31,22,6,2,2,22,2,2,0,6,0,12,29,29,2,6,24,9,2,9,9,2,22,23,26,31,27,2,9,31,6,26,0,0,0,0,0,0,0,0,0,0,0,0,0,0,0,0,0,0,0,0,0,0,0,0,0,0,0,0,0,0,0,0,0,0,0,0,0,0,0,0,0,0,0,0,0,0,0,0,0,0,0,0,0,0,0,0,0,0,0,0],"split_type":[0,0,0,0,0,0,0,0,0,0,0,0,0,0,0,0,0,0,0,0,0,0,0,0,0,0,0,0,0,0,0,0,0,0,0,0,0,0,0,0,0,0,0,0,0,0,0,0,0,0,0,0,0,0,0,0,0,0,0,0,0,0,0,0,0,0,0,0,0,0,0,0,0,0,0,0,0,0,0,0,0,0,0,0,0,0,0,0,0,0,0,0,0,0,0,0,0,0,0,0,0,0,0,0,0,0,0,0,0,0,0,0,0,0,0,0,0,0,0,0,0,0,0],"sum_hessian":[1.976611E4,3.986028E3,1.578008E4,3.558793E3,4.272352E2,5.3603057E3,1.0419775E4,3.2402935E3,3.184995E2,6.8364006E1,3.588712E2,4.8340723E3,5.262333E2,9.375353E3,1.044423E3,2.967898E3,2.7239563E2,2.7178128E2,4.6718204E1,5.097589E1,1.7388111E1,4.752323E1,3.1134796E2,4.3677495E3,4.6632257E2,4.6638998E2,5.9843285E1,2.3355588E3,7.039793E3,1.0117534E3,3.2669514E1,2.720769E3,2.4712878E2,2.4115291E2,3.1242712E1,2.6583533E2,5.9459705E0,7.209488E0,3.9508717E1,1.2410334E0,4.973486E1,1.9936236E0,1.5394486E1,8.469133E0,3.90541E1,2.1364418E1,2.8998352E2,3.9735762E3,3.9417352E2,4.153837E2,5.093886E1,3.608007E2,1.0558928E2,1.58907585E1,4.3952526E1,1.8684703E3,4.6708853E2,6.351994E3,6.8779913E2,7.626806E2,2.4907281E2,8.674082E0,2.3995432E1,2.49829E3,2.2247913E2,2.1309589E2,3.4032894E1,7.96047E1,1.6154822E2,2.4067537E1,7.1751747E0,1.7642431E1,2.4819289E2,4.456841E0,1.4891293E0,2.7317255E0,4.477762E0,3.2298088E0,3.6278908E1,4.177513E1,7.9597282E0,1.3412876E1,1.9816103E0,7.2239423E0,1.2451909E0,3.332814E1,5.725959E0,1.3162378E1,8.20204E0,2.684048E2,2.1578753E1,3.6574766E3,3.1609955E2,2.9077817E2,1.0339537E2,3.5231833E2,6.3065365E1,1.0691448E1,4.0247414E1,8.7445206E1,2.733555E2,1.0935613E1,9.465367E1,1.3654573E1,2.2361853E0,3.4753082E1,9.199443E0,1.6992708E3,1.6919968E2,2.4018199E2,2.2690652E2,5.78296E3,5.6903394E2,1.8009816E2,5.0770096E2,5.060832E2,2.5659744E2,2.1437175E2,3.4701065E1,6.9419003E0,1.732181E0,2.0529007E1,3.466425E0],"tree_param":{"num_deleted":"0","num_feature":"32","num_nodes":"123","size_leaf_vector":"1"}},{"base_weights":[-2.4159453E-3,-6.764114E-2,1.9275399E-1,-2.0549466E-1,-8.798263E-3,5.5195212E-2,2.5153068E-1,-8.7124206E-2,-2.7613753E-1,2.8700411E-2,-2.3397413E-1,-1.557781E-2,3.253077E-1,2.823148E-1,5.6710932E-2,-2.369912E-1,1.3820961E-2,-3.0738708E-1,3.2704978E-3,1.4477926E-1,-3.589763E-2,-1.4230901E-1,-3.3343342E-1,-5.143754E-2,3.0194744E-1,6.2284406E-2,4.0605316E-1,2.5579774E-1,5.1112646E-1,-2.3845055E-3,2.796379E-1,-3.0842438E-1,3.3083007E-2,-1.8462434E-2,3.0605903E-1,-3.3909512E-1,-1.5915658E-2,-1.6304262E-1,1.07599564E-1,1.1544877E-1,4.1296786E-1,-6.395738E-2,2.1271147E-1,-1.7466722E-1,1.4003669E-1,-5.203243E-1,-2.5857705E-1,-1.1219873E-1,2.0330063E-1,4.000211E-1,-4.4399094E-2,2.3473091E-1,-4.8139653E-1,3.4816968E-1,7.940133E-1,3.608503E-1,1.971355E-1,5.548806E-1,2.7079204E-1,3.1543708E-1,-4.6709657E-2,4.408815E-1,-7.9789594E-2,-1.8721523E-2,-1.9755885E-4,8.990337E-3,-2.1863138E-2,-3.6031813E-3,9.714427E-3,-1.2678687E-2,2.3441425E-2,-1.85144E-2,-1.62721E-3,-8.411395E-3,6.8609393E-3,1.2960138E-2,-1.3593177E-2,2.4352457E-2,-3.4612387E-3,4.258783E-3,2.114953E-2,1.8435784E-2,3.896743E-2,-4.6660597E-3,1.0456769E-2,1.387953E-2,-1.1956596E-3,-1.1918047E-2,-3.791686E-3,1.602712E-2,-1.934317E-2,-3.0336281E-2,-5.528764E-3,-1.6803421E-2,3.0602443E-3,-8.929077E-3,7.896087E-3,-8.382518E-5,2.006398E-2,7.720066E-2,1.7583562E-2,4.4993768E-3,-4.2794682E-2,3.8109045E-2,1.1806713E-3,-3.533871E-2,1.7541578E-3,1.495096E-2,3.7513837E-2,4.7852546E-2,-7.818785E-3,2.8468553E-2,1.6742244E-2,6.8686507E-3,2.1462053E-2,2.5378143E-2,3.8983822E-2,-2.213186E-2,1.8909087E-2,2.6770769E-2,-3.134583E-3,-5.847297E-3,1.2547645E-2,2.74808E-2,-2.5178327E-3,-3.3896323E-2,1.0157553E-2],"categories":[],"categories_nodes":[],"categories_segments":[],"categories_sizes":[],"default_left":[0,0,0,0,0,0,0,0,0,0,0,0,0,0,0,0,0,0,0,0,0,0,0,0,0,0,0,0,0,0,0,0,0,0,0,0,0,0,0,0,0,0,0,0,0,0,0,0,0,0,0,0,0,0,0,0,0,0,0,0,0,0,0,0,0,0,0,0,0,0,0,0,0,0,0,0,0,0,0,0,0,0,0,0,0,0,0,0,0,0,0,0,0,0,0,0,0,0,0,0,0,0,0,0,0,0,0,0,0,0,0,0,0,0,0,0,0,0,0,0,0,0,0,0,0,0,0],"id":6,"left_children":[1,3,5,7,9,11,13,15,17,19,21,23,25,27,29,31,33,35,37,39,41,43,45,47,49,51,53,55,57,59,61,63,65,67,69,71,73,75,77,79,81,83,85,87,89,91,93,95,97,99,101,103,105,107,109,111,113,115,117,119,121,123,125,-1,-1,-1,-1,-1,-1,-1,-1,-1,-1,-1,-1,-1,-1,-1,-1,-1,-1,-1,-1,-1,-1,-1,-1,-1,-1,-1,-1,-1,-1,-1,-1,-1,-1,-1,-1,-1,-1,-1,-1,-1,-1,-1,-1,-1,-1,-1,-1,-1,-1,-1,-1,-1,-1,-1,-1,-1,-1,-1,-1,-1,-1,-1,-1],"loss_changes":[2.5147238E2,1.20100975E2,3.9993332E1,3.701381E1,8.763498E1,2.8347626E1,2.07742E1,2.5069271E1,2.4216644E1,6.672063E1,1.3460388E1,1.34030695E1,6.5129776E0,1.8030807E1,6.2487E0,1.2876373E1,9.354995E0,2.304808E1,4.875399E0,2.4976357E1,3.9894592E1,7.084591E0,9.796295E0,1.6387848E1,4.075342E0,7.003286E0,5.0090446E0,1.6471954E1,3.1081772E0,5.309985E0,5.795248E0,1.05998955E1,9.767791E0,1.0201397E1,9.104075E0,2.1499573E1,5.755833E0,5.047804E0,1.1617702E1,2.6675243E1,4.7910995E0,4.1220695E1,8.911497E0,4.3491516E0,7.7337832E0,7.085045E0,1.2629616E1,1.5347289E1,8.2783165E0,4.6117344E0,3.049956E0,6.2698107E0,2.1229496E0,3.8586426E0,4.7634926E0,5.018799E0,2.3865349E1,2.3824768E0,3.9734278E0,3.8711152E0,6.9441986E0,3.7005873E0,5.489959E0,0E0,0E0,0E0,0E0,0E0,0E0,0E0,0E0,0E0,0E0,0E0,0E0,0E0,0E0,0E0,0E0,0E0,0E0,0E0,0E0,0E0,0E0,0E0,0E0,0E0,0E0,0E0,0E0,0E0,0E0,0E0,0E0,0E0,0E0,0E0,0E0,0E0,0E0,0E0,0E0,0E0,0E0,0E0,0E0,0E0,0E0,0E0,0E0,0E0,0E0,0E0,0E0,0E0,0E0,0E0,0E0,0E0,0E0,0E0,0E0,0E0,0E0,0E0,0E0],"parents":[2147483647,0,0,1,1,2,2,3,3,4,4,5,5,6,6,7,7,8,8,9,9,10,10,11,11,12,12,13,13,14,14,15,15,16,16,17,17,18,18,19,19,20,20,21,21,22,22,23,23,24,24,25,25,26,26,27,27,28,28,29,29,30,30,31,31,32,32,33,33,34,34,35,35,36,36,37,37,38,38,39,39,40,40,41,41,42,42,43,43,44,44,45,45,46,46,47,47,48,48,49,49,50,50,51,51,52,52,53,53,54,54,55,55,56,56,57,57,58,58,59,59,60,60,61,61,62,62],"right_children":[2,4,6,8,10,12,14,16,18,20,22,24,26,28,30,32,34,36,38,40,42,44,46,48,50,52,54,56,58,60,62,64,66,68,70,72,74,76,78,80,82,84,86,88,90,92,94,96,98,100,102,104,106,108,110,112,114,116,118,120,122,124,126,-1,-1,-1,-1,-1,-1,-1,-1,-1,-1,-1,-1,-1,-1,-1,-1,-1,-1,-1,-1,-1,-1,-1,-1,-1,-1,-1,-1,-1,-1,-1,-1,-1,-1,-1,-1,-1,-1,-1,-1,-1,-1,-1,-1,-1,-1,-1,-1,-1,-1,-1,-1,-1,-1,-1,-1,-1,-1,-1,-1,-1,-1,-1,-1],"split_conditions":[1.8E1,1E0,1E0,3.8E1,2E0,1E0,2E0,2E0,1E0,3.7E1,4.5E1,1E0,9.2E1,1E0,1E0,1E0,1E0,1E0,1.39E2,1E0,1E0,1E0,5E0,1E0,1E0,5.6E1,1E0,3.7E1,6.2E1,2.3E1,2.2E1,1E0,1E0,1E0,6.7E1,1E0,9E0,3.1E1,2.09E2,1E0,1.6E1,1E0,6.4E1,1.1E1,1E0,1E0,1E0,1E0,1.76E2,1.5E1,1E0,2.8E1,1E0,1E0,1E0,2E1,1E0,1E0,6.3E1,2.025E3,1E0,1E0,1.35E2,-1.8721523E-2,-1.9755885E-4,8.990337E-3,-2.1863138E-2,-3.6031813E-3,9.714427E-3,-1.2678687E-2,2.3441425E-2,-1.85144E-2,-1.62721E-3,-8.411395E-3,6.8609393E-3,1.2960138E-2,-1.3593177E-2,2.4352457E-2,-3.4612387E-3,4.258783E-3,2.114953E-2,1.8435784E-2,3.896743E-2,-4.6660597E-3,1.0456769E-2,1.387953E-2,-1.1956596E-3,-1.1918047E-2,-3.791686E-3,1.602712E-2,-1.934317E-2,-3.0336281E-2,-5.528764E-3,-1.6803421E-2,3.0602443E-3,-8.929077E-3,7.896087E-3,-8.382518E-5,2.006398E-2,7.720066E-2,1.7583562E-2,4.4993768E-3,-4.2794682E-2,3.8109045E-2,1.1806713E-3,-3.533871E-2,1.7541578E-3,1.495096E-2,3.7513837E-2,4.7852546E-2,-7.818785E-3,2.8468553E-2,1.6742244E-2,6.8686507E-3,2.1462053E-2,2.5378143E-2,3.8983822E-2,-2.213186E-2,1.8909087E-2,2.6770769E-2,-3.134583E-3,-5.847297E-3,1.2547645E-2,2.74808E-2,-2.5178327E-3,-3.3896323E-2,1.0157553E-2],"split_indices":[3,4,4,6,4,20,4,5,27,6,6,22,2,30,13,17,22,24,2,23,26,24,3,16,16,6,23,6,6,6,3,15,13,15,2,28,3,2,2,28,3,27,6,3,17,14,16,14,2,2,27,2,12,24,27,6,21,26,6,1,15,16,2,0,0,0,0,0,0,0,0,0,0,0,0,0,0,0,0,0,0,0,0,0,0,0,0,0,0,0,0,0,0,0,0,0,0,0,0,0,0,0,0,0,0,0,0,0,0,0,0,0,0,0,0,0,0,0,0,0,0,0,0,0,0,0,0],"split_type":[0,0,0,0,0,0,0,0,0,0,0,0,0,0,0,0,0,0,0,0,0,0,0,0,0,0,0,0,0,0,0,0,0,0,0,0,0,0,0,0,0,0,0,0,0,0,0,0,0,0,0,0,0,0,0,0,0,0,0,0,0,0,0,0,0,0,0,0,0,0,0,0,0,0,0,0,0,0,0,0,0,0,0,0,0,0,0,0,0,0,0,0,0,0,0,0,0,0,0,0,0,0,0,0,0,0,0,0,0,0,0,0,0,0,0,0,0,0,0,0,0,0,0,0,0,0,0],"sum_hessian":[1.9752293E4,1.4805121E4,4.9471724E3,4.428293E3,1.0376828E4,1.481609E3,3.4655635E3,1.655889E3,2.7724038E3,8.89621E3,1.4806187E3,1.1747511E3,3.068579E2,2.9922922E3,4.7327127E2,6.659085E2,9.8998047E2,2.493433E3,2.7897086E2,3.180249E3,5.7159604E3,7.717646E2,7.08854E2,1.0562963E3,1.1845487E2,7.249179E1,2.343661E2,2.6834268E3,3.0886542E2,3.7488324E2,9.838804E1,5.26508E2,1.3940056E2,8.923409E2,9.7639626E1,2.2486482E3,2.4478491E2,1.07322716E2,1.7164813E2,2.8680183E3,3.1223083E2,5.1369155E3,5.790451E2,6.9275305E2,7.901154E1,2.010213E2,5.0783273E2,8.533187E2,2.0297752E2,9.219374E1,2.6261135E1,5.546688E1,1.7024912E1,2.0558966E2,2.877645E1,9.596789E2,1.7237479E3,2.6018802E2,4.867739E1,4.5135418E1,3.2974783E2,6.776238E1,3.0625656E1,4.3251437E2,9.399359E1,1.06725426E2,3.267514E1,7.132928E2,1.7904808E2,2.187416E1,7.5765465E1,2.0407819E3,2.0786624E2,1.226725E2,1.2211241E2,2.1708359E1,8.561436E1,5.4004585E1,1.1764355E2,2.6121648E3,2.5585345E2,2.8037317E2,3.185767E1,4.6387954E3,4.9812006E2,4.543073E2,1.2473776E2,4.2040762E2,2.7234543E2,5.9142216E1,1.9869331E1,1.6561774E2,3.540356E1,4.0873486E2,9.909788E1,6.852546E2,1.6806416E2,1.0021336E2,1.0276417E2,2.4840958E0,8.970964E1,2.3292858E1,2.9682782E0,1.5108931E1,4.035795E1,1.1596201E1,5.4287114E0,1.8475076E2,2.0838898E1,2.4556768E1,4.219681E0,1.0409702E2,8.5558185E2,1.3720618E3,3.516862E2,2.1763538E2,4.255264E1,5.9601493E0,4.2717243E1,2.827205E1,1.6863365E1,2.6728622E2,6.246159E1,5.538434E1,1.237804E1,9.386527E0,2.123913E1],"tree_param":{"num_deleted":"0","num_feature":"32","num_nodes":"127","size_leaf_vector":"1"}},{"base_weights":[2.1186776E-3,-1.1135107E-1,2.3039927E-1,-1.7959884E-1,9.281014E-2,1.6592665E-1,4.2483553E-1,-2.0575684E-1,5.711588E-2,5.6272525E-2,4.188757E-1,1.398358E-1,4.0801293E-1,4.008013E-1,6.340215E-1,-2.3360606E-1,6.442172E-2,1.03007466E-1,-3.3324632E-1,2.3687584E-2,3.536502E-1,2.2369626E-1,4.9837762E-1,9.739428E-2,3.125683E-1,2.3997559E-1,4.8759755E-1,4.2322484E-1,1.9342011E-1,5.510251E-1,9.487459E-1,-2.6213717E-1,5.3725824E-2,-1.1254669E-1,1.7311126E-1,-2.1076525E-2,1.6820145E-1,-2.3240718E-1,-8.0195004E-1,-2.7121704E-2,2.4147756E-1,7.0020807E-1,2.4514204E-1,1.128273E-1,5.9089243E-1,5.4326683E-1,2.0930246E-1,7.023803E-2,3.6541474E-1,-2.733344E-3,3.5573304E-1,3.1753874E-1,-8.8692345E-2,2.758402E-1,5.708682E-1,3.063279E-1,4.79611E-1,3.4034255E-1,5.1142048E-2,6.00404E-1,2.1360046E-1,7.052795E-2,1.0825862E0,-1.4646681E-2,3.0526519E-3,-6.0175993E-3,6.493058E-3,-1.7173477E-2,-1.491842E-3,1.1893941E-2,-4.235716E-3,-6.122447E-3,1.092893E-2,1.0734728E-2,7.537112E-5,-2.4241595E-2,-7.1084633E-4,4.122117E-3,-5.3839702E-2,-3.6871487E-3,8.473389E-3,1.7285034E-3,1.6434899E-2,3.9872795E-2,-3.9130435E-3,1.4445679E-2,-1.0322697E-2,1.0025315E-2,-1.7369112E-2,4.034242E-2,-5.372086E-3,3.9636523E-2,2.4709297E-2,1.6401678E-2,-2.2706697E-2,2.3155054E-3,1.6836219E-2,2.0485973E-2,1.1165607E-2,-1.1141628E-2,5.0829547E-3,1.0250012E-2,2.0836657E-2,3.5695314E-2,1.0734205E-2,-1.6868684E-2,5.247865E-2,3.673251E-2,9.250115E-3,3.242123E-2,1.4509173E-2,1.2505355E-2,4.0209185E-2,2.2737084E-2,3.563426E-2,-4.8196446E-3,2.2042472E-2,-3.6626712E-3,2.4976281E-2,3.8783062E-2,2.7023003E-2,-1.5242283E-2,2.5656417E-2,4.198535E-2,-2.1434715E-2,6.028777E-2,2.0462928E-2],"categories":[],"categories_nodes":[],"categories_segments":[],"categories_sizes":[],"default_left":[0,0,0,0,0,0,0,0,0,0,0,0,0,0,0,0,0,0,0,0,0,0,0,0,0,0,0,0,0,0,0,0,0,0,0,0,0,0,0,0,0,0,0,0,0,0,0,0,0,0,0,0,0,0,0,0,0,0,0,0,0,0,0,0,0,0,0,0,0,0,0,0,0,0,0,0,0,0,0,0,0,0,0,0,0,0,0,0,0,0,0,0,0,0,0,0,0,0,0,0,0,0,0,0,0,0,0,0,0,0,0,0,0,0,0,0,0,0,0,0,0,0,0,0,0,0,0],"id":7,"left_children":[1,3,5,7,9,11,13,15,17,19,21,23,25,27,29,31,33,35,37,39,41,43,45,47,49,51,53,55,57,59,61,63,65,67,69,71,73,75,77,79,81,83,85,87,89,91,93,95,97,99,101,103,105,107,109,111,113,115,117,119,121,123,125,-1,-1,-1,-1,-1,-1,-1,-1,-1,-1,-1,-1,-1,-1,-1,-1,-1,-1,-1,-1,-1,-1,-1,-1,-1,-1,-1,-1,-1,-1,-1,-1,-1,-1,-1,-1,-1,-1,-1,-1,-1,-1,-1,-1,-1,-1,-1,-1,-1,-1,-1,-1,-1,-1,-1,-1,-1,-1,-1,-1,-1,-1,-1,-1],"loss_changes":[5.1226874E2,1.8408151E2,8.2243225E1,6.1318146E1,3.941378E1,3.1099747E1,7.963379E0,6.710077E1,1.7697994E1,2.8847202E1,5.0619736E0,3.2625053E1,6.2939606E0,6.748169E0,3.8321075E0,6.627768E1,1.6059856E1,7.146989E0,4.7270975E0,2.9716541E1,1.0884113E1,3.9356866E0,2.9498825E0,2.6011253E1,1.1952507E1,4.006091E0,5.561798E0,8.583984E0,3.0169406E0,2.109661E0,3.8501873E0,7.320346E1,9.703207E0,6.0616603E0,8.653811E0,7.4375687E0,4.487049E0,4.782607E0,4.46358E0,1.9973309E1,9.155916E0,5.328762E0,4.5158834E0,3.1665084E0,3.4895182E0,2.1026917E0,2.7767859E0,2.0704098E1,1.9790154E0,2.475065E0,7.016716E0,5.002592E0,9.008965E0,3.7601166E0,4.859314E0,1.194059E1,4.8451843E0,3.169404E0,4.2154565E0,8.059082E-1,3.0601223E0,2.4671092E0,1.9048157E0,0E0,0E0,0E0,0E0,0E0,0E0,0E0,0E0,0E0,0E0,0E0,0E0,0E0,0E0,0E0,0E0,0E0,0E0,0E0,0E0,0E0,0E0,0E0,0E0,0E0,0E0,0E0,0E0,0E0,0E0,0E0,0E0,0E0,0E0,0E0,0E0,0E0,0E0,0E0,0E0,0E0,0E0,0E0,0E0,0E0,0E0,0E0,0E0,0E0,0E0,0E0,0E0,0E0,0E0,0E0,0E0,0E0,0E0,0E0,0E0,0E0,0E0,0E0,0E0],"parents":[2147483647,0,0,1,1,2,2,3,3,4,4,5,5,6,6,7,7,8,8,9,9,10,10,11,11,12,12,13,13,14,14,15,15,16,16,17,17,18,18,19,19,20,20,21,21,22,22,23,23,24,24,25,25,26,26,27,27,28,28,29,29,30,30,31,31,32,32,33,33,34,34,35,35,36,36,37,37,38,38,39,39,40,40,41,41,42,42,43,43,44,44,45,45,46,46,47,47,48,48,49,49,50,50,51,51,52,52,53,53,54,54,55,55,56,56,57,57,58,58,59,59,60,60,61,61,62,62],"right_children":[2,4,6,8,10,12,14,16,18,20,22,24,26,28,30,32,34,36,38,40,42,44,46,48,50,52,54,56,58,60,62,64,66,68,70,72,74,76,78,80,82,84,86,88,90,92,94,96,98,100,102,104,106,108,110,112,114,116,118,120,122,124,126,-1,-1,-1,-1,-1,-1,-1,-1,-1,-1,-1,-1,-1,-1,-1,-1,-1,-1,-1,-1,-1,-1,-1,-1,-1,-1,-1,-1,-1,-1,-1,-1,-1,-1,-1,-1,-1,-1,-1,-1,-1,-1,-1,-1,-1,-1,-1,-1,-1,-1,-1,-1,-1,-1,-1,-1,-1,-1,-1,-1,-1,-1,-1,-1],"split_conditions":[4E0,1.8E1,1.8E1,1E0,1E0,1E0,1E0,1E0,2E0,1E0,1E0,1E0,6E0,2E0,1E0,1E0,7E0,1E0,1E0,1E0,1E0,1E0,1E0,1E0,2E0,1E0,1E0,1E0,2.1E1,1E0,1.9E1,1E0,1E0,2E0,1E0,1.3E1,1E0,8E0,1E0,1E0,1E0,2E0,2E0,1E0,1E0,1.9E1,1E0,1E0,1E0,1E0,1E0,2.024E3,1E0,8E0,1E0,1E0,1E0,2.024E3,1E0,2.024E3,1E0,2.024E3,1E0,-1.4646681E-2,3.0526519E-3,-6.0175993E-3,6.493058E-3,-1.7173477E-2,-1.491842E-3,1.1893941E-2,-4.235716E-3,-6.122447E-3,1.092893E-2,1.0734728E-2,7.537112E-5,-2.4241595E-2,-7.1084633E-4,4.122117E-3,-5.3839702E-2,-3.6871487E-3,8.473389E-3,1.7285034E-3,1.6434899E-2,3.9872795E-2,-3.9130435E-3,1.4445679E-2,-1.0322697E-2,1.0025315E-2,-1.7369112E-2,4.034242E-2,-5.372086E-3,3.9636523E-2,2.4709297E-2,1.6401678E-2,-2.2706697E-2,2.3155054E-3,1.6836219E-2,2.0485973E-2,1.1165607E-2,-1.1141628E-2,5.0829547E-3,1.0250012E-2,2.0836657E-2,3.5695314E-2,1.0734205E-2,-1.6868684E-2,5.247865E-2,3.673251E-2,9.250115E-3,3.242123E-2,1.4509173E-2,1.2505355E-2,4.0209185E-2,2.2737084E-2,3.563426E-2,-4.8196446E-3,2.2042472E-2,-3.6626712E-3,2.4976281E-2,3.8783062E-2,2.7023003E-2,-1.5242283E-2,2.5656417E-2,4.198535E-2,-2.1434715E-2,6.028777E-2,2.0462928E-2],"split_indices":[8,3,3,27,31,29,26,28,4,28,4,20,3,4,19,22,3,4,31,15,8,20,27,28,3,14,4,4,3,28,3,26,4,3,15,3,15,3,8,13,4,4,4,29,17,3,13,23,13,4,4,1,23,3,18,22,28,1,15,1,4,1,21,0,0,0,0,0,0,0,0,0,0,0,0,0,0,0,0,0,0,0,0,0,0,0,0,0,0,0,0,0,0,0,0,0,0,0,0,0,0,0,0,0,0,0,0,0,0,0,0,0,0,0,0,0,0,0,0,0,0,0,0,0,0,0,0],"split_type":[0,0,0,0,0,0,0,0,0,0,0,0,0,0,0,0,0,0,0,0,0,0,0,0,0,0,0,0,0,0,0,0,0,0,0,0,0,0,0,0,0,0,0,0,0,0,0,0,0,0,0,0,0,0,0,0,0,0,0,0,0,0,0,0,0,0,0,0,0,0,0,0,0,0,0,0,0,0,0,0,0,0,0,0,0,0,0,0,0,0,0,0,0,0,0,0,0,0,0,0,0,0,0,0,0,0,0,0,0,0,0,0,0,0,0,0,0,0,0,0,0,0,0,0,0,0,0],"sum_hessian":[1.9774479E4,1.3209193E4,6.565284E3,9.899929E3,3.3092642E3,4.9318115E3,1.6334729E3,8.914922E3,9.8500696E2,2.9768613E3,3.324027E2,4.4534214E3,4.7838995E2,1.4677528E3,1.6572014E2,8.0819897E3,8.3293256E2,8.8204816E2,1.0295883E2,2.6838591E3,2.9300223E2,9.731224E1,2.3509047E2,3.5762717E3,8.771497E2,1.5504297E2,3.23347E2,1.3235955E3,1.4415733E2,1.3331444E2,3.2405712E1,7.352043E3,7.299464E2,3.169077E2,5.160249E2,3.040414E2,5.780067E2,8.596069E1,1.699814E1,2.1768796E3,5.0697946E2,6.856464E1,2.244376E2,7.5748474E1,2.1563766E1,2.0273009E2,3.236038E1,3.248401E3,3.2787094E2,1.0573477E2,7.71415E2,1.2546745E2,2.957551E1,9.2480774E1,2.3086621E2,4.3279004E2,8.908054E2,7.023626E1,7.3921074E1,1.15615776E2,1.7698658E1,4.4874463E0,2.7918264E1,6.7125093E3,6.3953394E2,2.2193279E2,5.0801364E2,8.274211E1,2.3416559E2,4.1248355E2,1.0354133E2,2.1400702E2,9.0034386E1,4.5172644E2,1.2628028E2,3.92872E1,4.6673492E1,4.1960716E0,1.280207E1,1.7600969E3,4.1678278E2,1.507533E2,3.5622617E2,6.092889E1,7.635748E0,2.0493431E2,1.9503288E1,6.4100395E1,1.1648076E1,1.6351702E1,5.212064E0,3.0838034E1,1.7189206E2,2.7876965E1,4.4834137E0,2.9818345E3,2.6656644E2,2.485079E2,7.936304E1,3.3651005E1,7.208377E1,2.2350044E2,5.479145E2,2.4626024E1,1.0084143E2,2.4850033E1,4.7254777E0,1.4112575E1,7.8368195E1,1.7985893E2,5.1007282E1,3.9022583E2,4.2564228E1,8.075858E2,8.321961E1,1.31474E1,5.708886E1,5.8521915E1,1.539916E1,2.642315E1,8.919263E1,6.4744406E0,1.1224218E1,1.49775E0,2.989696E0,2.293256E1,4.985705E0],"tree_param":{"num_deleted":"0","num_feature":"32","num_nodes":"127","size_leaf_vector":"1"}},{"base_weights":[2.0311158E-3,-5.7589486E-2,1.8024242E-1,5.784499E-2,-1.2220651E-1,4.529535E-2,2.3751675E-1,-6.679648E-2,1.10469565E-1,-2.487079E-1,-6.796998E-2,1.032924E-2,3.593988E-1,2.0623435E-1,5.1155007E-1,-1.0165072E-1,2.5477812E-1,8.416498E-2,3.5058257E-1,-2.804693E-1,2.9801298E-2,-9.794916E-2,1.972313E-1,-4.9266994E-2,2.4207039E-1,2.3550624E-1,6.218064E-1,3.351355E-1,1.439273E-1,5.613181E-1,1.9480205E-1,-1.4132248E-1,2.611708E-1,5.675467E-1,1.5468782E-1,5.9460364E-2,3.3492935E-1,4.0828937E-1,-1.7679006E-2,-3.0863017E-1,-2.5314674E-2,2.22248E-1,-1.5697816E-1,-1.3933934E-1,6.424714E-2,2.6690748E-1,-6.712124E-2,1.0927563E-1,-1.3363191E-1,3.5719162E-1,7.645468E-2,3.1790152E-1,-2.504688E-1,7.888602E-1,1.6114302E-2,2.976635E-1,6.928278E-1,1.12467565E-1,4.4749779E-1,1.15395E0,5.275475E-1,3.9002725E-1,-8.103386E-1,-9.723826E-3,3.8993966E-3,-3.4967002E-3,2.40909E-2,6.639755E-2,1.8637238E-2,2.6826555E-2,1.4730709E-3,1.6133873E-3,1.6781436E-2,8.273342E-3,2.167561E-2,7.566634E-3,2.368073E-2,-7.88433E-3,4.477533E-2,-1.758703E-2,-6.144983E-3,-1.4220676E-2,2.9443114E-3,6.9352635E-3,2.6270568E-2,-1.1198573E-2,7.189762E-3,-8.502851E-3,8.445227E-3,6.188482E-3,-1.4287374E-2,1.5788237E-2,-2.6891257E-3,-7.410833E-3,2.0897258E-2,2.925822E-3,2.8304702E-2,-8.403505E-3,9.466339E-3,8.638072E-3,2.8296081E-2,7.3810215E-3,-8.6705405E-3,-1.8262086E-2,1.8948933E-2,5.5738324E-3,-3.853459E-2,4.656404E-2,5.276311E-3,-7.46632E-3,3.7056543E-2,1.2249469E-2,2.5448471E-2,2.5117561E-2,4.5728147E-2,3.9805765E-3,2.111817E-2,2.5191993E-2,4.0036053E-3,6.515754E-2,8.959725E-3,2.8491026E-2,1.1756227E-2,3.463905E-2,-2.8737728E-2,-5.5036288E-2,4.397465E-3],"categories":[],"categories_nodes":[],"categories_segments":[],"categories_sizes":[],"default_left":[0,0,0,0,0,0,0,0,0,0,0,0,0,0,0,0,0,0,0,0,0,0,0,0,0,0,0,0,0,0,0,0,0,0,0,0,0,0,0,0,0,0,0,0,0,0,0,0,0,0,0,0,0,0,0,0,0,0,0,0,0,0,0,0,0,0,0,0,0,0,0,0,0,0,0,0,0,0,0,0,0,0,0,0,0,0,0,0,0,0,0,0,0,0,0,0,0,0,0,0,0,0,0,0,0,0,0,0,0,0,0,0,0,0,0,0,0,0,0,0,0,0,0,0,0,0,0],"id":8,"left_children":[1,3,5,7,9,11,13,15,17,19,21,23,25,27,29,31,33,35,37,39,41,43,45,47,49,51,53,55,57,59,61,63,65,67,69,71,73,75,77,79,81,83,85,87,89,91,93,95,97,99,101,103,105,107,109,111,113,115,117,119,121,123,125,-1,-1,-1,-1,-1,-1,-1,-1,-1,-1,-1,-1,-1,-1,-1,-1,-1,-1,-1,-1,-1,-1,-1,-1,-1,-1,-1,-1,-1,-1,-1,-1,-1,-1,-1,-1,-1,-1,-1,-1,-1,-1,-1,-1,-1,-1,-1,-1,-1,-1,-1,-1,-1,-1,-1,-1,-1,-1,-1,-1,-1,-1,-1,-1],"loss_changes":[2.1045392E2,1.1071373E2,3.8366608E1,3.49494E1,6.5270905E1,1.6258976E1,2.9774963E1,1.7758331E1,2.3631039E1,2.5264633E1,5.2982727E1,1.8427721E1,4.6746197E0,2.509172E1,5.5098953E0,2.059259E1,4.7642965E0,2.090402E1,7.860634E0,1.8408188E1,1.0573173E1,4.0193153E1,1.2485825E1,1.4212479E1,5.17645E0,4.1776385E0,4.7378693E0,1.3455215E1,2.011922E1,5.545944E0,1.0114589E1,1.5029501E1,1.0342919E1,5.015497E0,5.6644907E0,2.3087967E1,4.9850044E0,5.2918625E0,6.6645722E0,1.843785E1,5.598318E0,3.5947866E0,3.0418882E0,4.5185234E1,2.5401377E1,8.413563E0,5.6476088E0,8.528223E0,7.742445E0,6.0901394E0,2.0384078E0,3.8079624E0,2.9848077E0,3.4811516E0,1.4505612E0,1.0163673E1,3.59087E0,1.9464415E1,4.058098E0,2.055212E0,3.4853668E0,1.2808583E1,2.2999916E0,0E0,0E0,0E0,0E0,0E0,0E0,0E0,0E0,0E0,0E0,0E0,0E0,0E0,0E0,0E0,0E0,0E0,0E0,0E0,0E0,0E0,0E0,0E0,0E0,0E0,0E0,0E0,0E0,0E0,0E0,0E0,0E0,0E0,0E0,0E0,0E0,0E0,0E0,0E0,0E0,0E0,0E0,0E0,0E0,0E0,0E0,0E0,0E0,0E0,0E0,0E0,0E0,0E0,0E0,0E0,0E0,0E0,0E0,0E0,0E0,0E0,0E0,0E0,0E0],"parents":[2147483647,0,0,1,1,2,2,3,3,4,4,5,5,6,6,7,7,8,8,9,9,10,10,11,11,12,12,13,13,14,14,15,15,16,16,17,17,18,18,19,19,20,20,21,21,22,22,23,23,24,24,25,25,26,26,27,27,28,28,29,29,30,30,31,31,32,32,33,33,34,34,35,35,36,36,37,37,38,38,39,39,40,40,41,41,42,42,43,43,44,44,45,45,46,46,47,47,48,48,49,49,50,50,51,51,52,52,53,53,54,54,55,55,56,56,57,57,58,58,59,59,60,60,61,61,62,62],"right_children":[2,4,6,8,10,12,14,16,18,20,22,24,26,28,30,32,34,36,38,40,42,44,46,48,50,52,54,56,58,60,62,64,66,68,70,72,74,76,78,80,82,84,86,88,90,92,94,96,98,100,102,104,106,108,110,112,114,116,118,120,122,124,126,-1,-1,-1,-1,-1,-1,-1,-1,-1,-1,-1,-1,-1,-1,-1,-1,-1,-1,-1,-1,-1,-1,-1,-1,-1,-1,-1,-1,-1,-1,-1,-1,-1,-1,-1,-1,-1,-1,-1,-1,-1,-1,-1,-1,-1,-1,-1,-1,-1,-1,-1,-1,-1,-1,-1,-1,-1,-1,-1,-1,-1,-1,-1,-1],"split_conditions":[1.8E1,3.7E1,1E0,1E0,1E0,1E0,1E0,1E0,1E0,1E0,1E0,1E0,2.2E1,3.5E1,2E0,1E0,4E0,1E0,2E0,1E0,5.4E1,1E0,6.4E1,3.6E1,2E0,4E0,1E0,1E0,1E0,2.1E1,1E0,1E0,2E0,1E0,2.2E1,1E0,7E0,1E0,3.5E1,1E0,5E0,1.4E1,6.8E1,1E0,2E0,2E0,7E1,1E0,1E0,1E0,1E0,2.3E1,5.8E1,1E0,1E0,1E0,3E0,1E0,2E0,1E0,1E0,1E0,1E0,-9.723826E-3,3.8993966E-3,-3.4967002E-3,2.40909E-2,6.639755E-2,1.8637238E-2,2.6826555E-2,1.4730709E-3,1.6133873E-3,1.6781436E-2,8.273342E-3,2.167561E-2,7.566634E-3,2.368073E-2,-7.88433E-3,4.477533E-2,-1.758703E-2,-6.144983E-3,-1.4220676E-2,2.9443114E-3,6.9352635E-3,2.6270568E-2,-1.1198573E-2,7.189762E-3,-8.502851E-3,8.445227E-3,6.188482E-3,-1.4287374E-2,1.5788237E-2,-2.6891257E-3,-7.410833E-3,2.0897258E-2,2.925822E-3,2.8304702E-2,-8.403505E-3,9.466339E-3,8.638072E-3,2.8296081E-2,7.3810215E-3,-8.6705405E-3,-1.8262086E-2,1.8948933E-2,5.5738324E-3,-3.853459E-2,4.656404E-2,5.276311E-3,-7.46632E-3,3.7056543E-2,1.2249469E-2,2.5448471E-2,2.5117561E-2,4.5728147E-2,3.9805765E-3,2.111817E-2,2.5191993E-2,4.0036053E-3,6.515754E-2,8.959725E-3,2.8491026E-2,1.1756227E-2,3.463905E-2,-2.8737728E-2,-5.5036288E-2,4.397465E-3],"split_indices":[3,6,4,4,4,22,31,29,23,31,26,14,3,6,4,22,3,28,4,30,6,21,6,6,7,7,16,26,23,6,30,15,5,5,6,22,3,5,6,12,3,3,6,24,4,4,6,31,30,24,21,6,6,28,20,15,5,28,4,18,29,15,12,0,0,0,0,0,0,0,0,0,0,0,0,0,0,0,0,0,0,0,0,0,0,0,0,0,0,0,0,0,0,0,0,0,0,0,0,0,0,0,0,0,0,0,0,0,0,0,0,0,0,0,0,0,0,0,0,0,0,0,0,0,0,0,0],"split_type":[0,0,0,0,0,0,0,0,0,0,0,0,0,0,0,0,0,0,0,0,0,0,0,0,0,0,0,0,0,0,0,0,0,0,0,0,0,0,0,0,0,0,0,0,0,0,0,0,0,0,0,0,0,0,0,0,0,0,0,0,0,0,0,0,0,0,0,0,0,0,0,0,0,0,0,0,0,0,0,0,0,0,0,0,0,0,0,0,0,0,0,0,0,0,0,0,0,0,0,0,0,0,0,0,0,0,0,0,0,0,0,0,0,0,0,0,0,0,0,0,0,0,0,0,0,0,0],"sum_hessian":[1.980533E4,1.4840963E4,4.964368E3,5.326174E3,9.514789E3,1.4797177E3,3.4846501E3,1.5810894E3,3.7450845E3,2.8541582E3,6.6606304E3,1.3324246E3,1.4729309E2,3.1291887E3,3.5546146E2,1.4270958E3,1.5399355E2,3.376533E3,3.685516E2,2.561981E3,2.9217728E2,5.9847285E3,6.7590186E2,1.060489E3,2.7193564E2,1.0134279E2,4.5950306E1,1.01824945E3,2.1109392E3,3.0652722E2,4.8934235E1,1.2869844E3,1.4011143E2,3.6200752E1,1.1779279E2,3.0748447E3,3.0168808E2,3.185292E2,5.0022404E1,2.3071375E3,2.5484338E2,1.4381192E2,1.4836536E2,4.7681147E3,1.216614E3,5.349055E2,1.4099634E2,3.6821893E2,6.922701E2,1.5974115E2,1.1219448E2,8.694708E1,1.4395707E1,3.5779636E1,1.0170669E1,9.23351E2,9.489845E1,1.9139613E3,1.96978E2,1.4737211E1,2.9179E2,4.1488102E1,7.4461317E0,1.0360028E3,2.5098163E2,5.630411E1,8.380733E1,6.196389E0,3.0004362E1,2.827908E1,8.951372E1,2.800239E3,2.746057E2,1.1194121E2,1.8974686E2,6.52368E1,2.5329239E2,4.4089954E1,5.9324512E0,1.8717798E3,4.3535776E2,6.1922066E1,1.9292131E2,1.1388591E2,2.9926018E1,1.21547585E2,2.681777E1,4.3364224E3,4.3169254E2,1.040334E3,1.7628001E2,4.641999E2,7.070565E1,1.2139539E2,1.9600948E1,3.324113E2,3.5807648E1,6.2599744E2,6.627263E1,8.57774E1,7.3963745E1,8.764186E1,2.4552624E1,6.7269263E0,8.022015E1,8.952626E0,5.4430814E0,2.9308338E1,6.471299E0,8.927541E0,1.2431281E0,7.4083563E2,1.825154E2,5.2803955E1,4.2094498E1,1.7316263E3,1.82335E2,1.7046689E2,2.6511124E1,1.2488727E1,2.2484848E0,2.5410733E2,3.7682693E1,3.1793165E1,9.694937E0,5.456775E0,1.9893566E0],"tree_param":{"num_deleted":"0","num_feature":"32","num_nodes":"127","size_leaf_vector":"1"}},{"base_weights":[-1.8734228E-3,-1.0664433E-1,2.0706931E-1,-1.670019E-1,7.2935894E-2,1.5616822E-1,3.6103928E-1,-5.7741076E-2,-2.2305767E-1,3.9332945E-2,3.7807608E-1,2.736828E-1,9.569346E-2,3.2468095E-1,5.0884193E-1,-8.645563E-2,2.0192261E-1,-2.4960604E-1,1.054611E-2,7.000834E-3,3.4331062E-1,4.2354462E-1,1.4192209E-1,2.4464777E-1,5.361449E-1,6.89414E-2,3.302237E-1,2.9440325E-1,5.910452E-1,2.3907226E-1,5.703513E-1,-1.9063433E-1,-1.6049825E-2,3.289671E-2,3.072807E-1,-2.798278E-1,3.8467318E-2,-6.31425E-2,2.013563E-1,-3.8509175E-2,1.9899492E-1,4.5387724E-1,1.8376732E-1,2.9707652E-1,4.9930072E-1,6.5785825E-1,-2.1890801E-1,2.1107334E-1,5.815497E-1,4.1534725E-1,7.8236395E-1,4.07067E-2,3.354437E-1,2.731251E-1,6.4169425E-1,2.6463413E-1,5.7625824E-1,3.7097412E-1,6.681916E-1,1.4288455E-1,9.997059E-1,8.2601786E-1,5.132816E-1,-1.1481542E-2,-1.7819224E-3,-2.4372076E-3,1.4522508E-2,9.547318E-3,-1.0647114E-2,1.2433055E-2,3.0607427E-2,-1.5378386E-2,3.227105E-4,2.7443198E-3,-2.2397172E-2,-9.076224E-4,-1.5898896E-2,-4.0483293E-3,1.4566523E-2,-4.563162E-3,9.372429E-3,1.7344043E-2,5.892264E-3,2.6923811E-2,9.171142E-3,3.300555E-2,5.22121E-3,2.0084426E-2,-2.4417562E-3,6.5543316E-3,2.9102648E-2,3.905965E-2,-1.2193827E-2,3.1039272E-3,-3.1471897E-2,9.232759E-3,2.4632998E-2,3.3165097E-2,1.3960212E-2,2.3790231E-2,3.1860717E-4,4.522169E-2,1.1146576E-2,7.785223E-4,1.4802985E-2,2.081132E-2,4.122241E-4,1.5345513E-3,1.9263174E-2,1.363188E-2,4.2442583E-2,1.6491584E-2,7.423853E-3,3.1701E-2,-3.1948963E-3,3.307909E-2,-4.9351185E-4,3.6746126E-2,1.436567E-2,-3.4367566E-3,1.9926822E-2,7.107516E-2,-6.619633E-3,4.726803E-2,-6.225113E-4,2.8538316E-2,1.4099377E-2],"categories":[],"categories_nodes":[],"categories_segments":[],"categories_sizes":[],"default_left":[0,0,0,0,0,0,0,0,0,0,0,0,0,0,0,0,0,0,0,0,0,0,0,0,0,0,0,0,0,0,0,0,0,0,0,0,0,0,0,0,0,0,0,0,0,0,0,0,0,0,0,0,0,0,0,0,0,0,0,0,0,0,0,0,0,0,0,0,0,0,0,0,0,0,0,0,0,0,0,0,0,0,0,0,0,0,0,0,0,0,0,0,0,0,0,0,0,0,0,0,0,0,0,0,0,0,0,0,0,0,0,0,0,0,0,0,0,0,0,0,0,0,0,0,0,0,0],"id":9,"left_children":[1,3,5,7,9,11,13,15,17,19,21,23,25,27,29,31,33,35,37,39,41,43,45,47,49,51,53,55,57,59,61,63,65,67,69,71,73,75,77,79,81,83,85,87,89,91,93,95,97,99,101,103,105,107,109,111,113,115,117,119,121,123,125,-1,-1,-1,-1,-1,-1,-1,-1,-1,-1,-1,-1,-1,-1,-1,-1,-1,-1,-1,-1,-1,-1,-1,-1,-1,-1,-1,-1,-1,-1,-1,-1,-1,-1,-1,-1,-1,-1,-1,-1,-1,-1,-1,-1,-1,-1,-1,-1,-1,-1,-1,-1,-1,-1,-1,-1,-1,-1,-1,-1,-1,-1,-1,-1],"loss_changes":[4.3296585E2,1.4279285E2,5.1711E1,6.037323E1,3.396957E1,3.526519E1,8.649826E0,2.4954487E1,4.0413208E1,2.935181E1,3.4689827E0,1.2722679E1,2.055793E1,1.0465759E1,5.2081604E0,2.2090645E1,5.925743E0,5.0950348E1,9.3757305E0,2.3604609E1,4.981365E0,2.4873276E0,1.0302684E1,1.7076706E1,4.6471252E0,2.215113E1,5.793064E0,9.803795E0,2.0214043E0,4.3585024E0,3.3924332E0,7.3335266E0,1.803691E1,5.057136E0,3.515173E0,4.20567E1,4.4684534E0,5.510627E0,4.742186E0,2.605031E1,6.1713333E0,3.765873E0,4.436498E0,3.8382092E0,5.121189E0,2.7158728E0,3.8297102E0,1.0207031E1,3.206791E0,2.822607E0,3.4784813E0,1.709841E1,7.4515343E0,7.745537E0,3.6866646E0,8.092926E0,4.200588E0,4.09513E0,2.2725563E0,3.04538E0,3.4066696E0,4.6237793E0,2.7172432E0,0E0,0E0,0E0,0E0,0E0,0E0,0E0,0E0,0E0,0E0,0E0,0E0,0E0,0E0,0E0,0E0,0E0,0E0,0E0,0E0,0E0,0E0,0E0,0E0,0E0,0E0,0E0,0E0,0E0,0E0,0E0,0E0,0E0,0E0,0E0,0E0,0E0,0E0,0E0,0E0,0E0,0E0,0E0,0E0,0E0,0E0,0E0,0E0,0E0,0E0,0E0,0E0,0E0,0E0,0E0,0E0,0E0,0E0,0E0,0E0,0E0,0E0,0E0,0E0],"parents":[2147483647,0,0,1,1,2,2,3,3,4,4,5,5,6,6,7,7,8,8,9,9,10,10,11,11,12,12,13,13,14,14,15,15,16,16,17,17,18,18,19,19,20,20,21,21,22,22,23,23,24,24,25,25,26,26,27,27,28,28,29,29,30,30,31,31,32,32,33,33,34,34,35,35,36,36,37,37,38,38,39,39,40,40,41,41,42,42,43,43,44,44,45,45,46,46,47,47,48,48,49,49,50,50,51,51,52,52,53,53,54,54,55,55,56,56,57,57,58,58,59,59,60,60,61,61,62,62],"right_children":[2,4,6,8,10,12,14,16,18,20,22,24,26,28,30,32,34,36,38,40,42,44,46,48,50,52,54,56,58,60,62,64,66,68,70,72,74,76,78,80,82,84,86,88,90,92,94,96,98,100,102,104,106,108,110,112,114,116,118,120,122,124,126,-1,-1,-1,-1,-1,-1,-1,-1,-1,-1,-1,-1,-1,-1,-1,-1,-1,-1,-1,-1,-1,-1,-1,-1,-1,-1,-1,-1,-1,-1,-1,-1,-1,-1,-1,-1,-1,-1,-1,-1,-1,-1,-1,-1,-1,-1,-1,-1,-1,-1,-1,-1,-1,-1,-1,-1,-1,-1,-1,-1,-1,-1,-1,-1],"split_conditions":[4E0,1.8E1,1.8E1,3.6E1,1E0,3.6E1,1E0,1E0,1E0,1E0,1E0,1E0,1E0,1E0,1E0,2E0,7E0,1E0,1.3E1,1E0,4.8E1,2E0,4.3E1,1E0,3E1,1E0,4E0,1E0,3.2E1,1E0,1.9E1,1E0,1E0,2.025E3,1E0,1E0,7E1,1.1E1,1E0,1E0,3.7E1,1E0,1.9E1,3E0,2.024E3,1E0,3E0,1E0,1E0,1E0,4E0,1E0,4E0,4.7E1,2E0,5.2E1,6.6E1,1E0,1E0,5E0,4.9E1,1E0,1E0,-1.1481542E-2,-1.7819224E-3,-2.4372076E-3,1.4522508E-2,9.547318E-3,-1.0647114E-2,1.2433055E-2,3.0607427E-2,-1.5378386E-2,3.227105E-4,2.7443198E-3,-2.2397172E-2,-9.076224E-4,-1.5898896E-2,-4.0483293E-3,1.4566523E-2,-4.563162E-3,9.372429E-3,1.7344043E-2,5.892264E-3,2.6923811E-2,9.171142E-3,3.300555E-2,5.22121E-3,2.0084426E-2,-2.4417562E-3,6.5543316E-3,2.9102648E-2,3.905965E-2,-1.2193827E-2,3.1039272E-3,-3.1471897E-2,9.232759E-3,2.4632998E-2,3.3165097E-2,1.3960212E-2,2.3790231E-2,3.1860717E-4,4.522169E-2,1.1146576E-2,7.785223E-4,1.4802985E-2,2.081132E-2,4.122241E-4,1.5345513E-3,1.9263174E-2,1.363188E-2,4.2442583E-2,1.6491584E-2,7.423853E-3,3.1701E-2,-3.1948963E-3,3.307909E-2,-4.9351185E-4,3.6746126E-2,1.436567E-2,-3.4367566E-3,1.9926822E-2,7.107516E-2,-6.619633E-3,4.726803E-2,-6.225113E-4,2.8538316E-2,1.4099377E-2],"split_indices":[8,3,3,6,31,6,13,24,27,25,24,22,27,27,5,5,3,23,3,16,6,5,6,29,6,25,7,26,6,29,3,16,31,1,28,28,6,3,8,13,6,16,3,8,1,23,5,25,20,29,5,26,5,6,5,6,6,7,29,8,6,29,18,0,0,0,0,0,0,0,0,0,0,0,0,0,0,0,0,0,0,0,0,0,0,0,0,0,0,0,0,0,0,0,0,0,0,0,0,0,0,0,0,0,0,0,0,0,0,0,0,0,0,0,0,0,0,0,0,0,0,0,0,0,0,0,0],"split_type":[0,0,0,0,0,0,0,0,0,0,0,0,0,0,0,0,0,0,0,0,0,0,0,0,0,0,0,0,0,0,0,0,0,0,0,0,0,0,0,0,0,0,0,0,0,0,0,0,0,0,0,0,0,0,0,0,0,0,0,0,0,0,0,0,0,0,0,0,0,0,0,0,0,0,0,0,0,0,0,0,0,0,0,0,0,0,0,0,0,0,0,0,0,0,0,0,0,0,0,0,0,0,0,0,0,0,0,0,0,0,0,0,0,0,0,0,0,0,0,0,0,0,0,0,0,0,0],"sum_hessian":[1.977614E4,1.3171831E4,6.604309E3,9.858442E3,3.3133884E3,4.964954E3,1.6393551E3,3.3435022E3,6.5149404E3,2.9857207E3,3.276676E2,1.6857256E3,3.2792285E3,1.318268E3,3.210871E2,3.011182E3,3.3232034E2,5.850033E3,6.649074E2,2.6996045E3,2.8611618E2,2.7409958E2,5.3568027E1,1.5195559E3,1.6616972E2,2.944638E3,3.3459076E2,1.1856051E3,1.3266284E2,6.052437E1,2.605627E2,1.2136498E3,1.7975321E3,1.2810837E2,2.0421196E2,5.294605E3,5.554282E2,4.8014877E2,1.8475864E2,2.1829585E3,5.16646E2,1.679079E2,1.1820829E2,1.0452532E2,1.6957423E2,2.1706957E1,3.186107E1,1.3833252E3,1.3623067E2,1.1328017E2,5.288955E1,2.663595E3,2.8104297E2,2.843422E2,5.0248547E1,1.0740992E3,1.11505936E2,3.5941967E1,9.672087E1,5.4784336E1,5.740032E0,4.5090084E1,2.1547264E2,9.6929614E2,2.4435365E2,1.6250311E3,1.7250098E2,7.811294E1,4.999544E1,1.7280154E2,3.1410418E1,4.826825E3,4.6777972E2,5.381498E2,1.7278402E1,4.0901096E2,7.113783E1,4.4675373E1,1.4008325E2,1.7702554E3,4.127032E2,1.8189273E2,3.3475327E2,1.2714541E2,4.0762493E1,1.5833106E1,1.0237518E2,8.0130646E1,2.4394678E1,3.1591007E1,1.3798323E2,1.9212805E1,2.4941525E0,1.9418734E1,1.2442337E1,1.2661884E3,1.1713682E2,1.0629528E2,2.9935383E1,9.854867E1,1.47315035E1,4.2909805E1,9.979745E0,2.4258606E3,2.3773416E2,2.2517668E2,5.5866283E1,9.032992E1,1.9401228E2,1.8897757E1,3.1350792E1,6.86779E2,3.8732022E2,1.0228617E2,9.219763E0,1.9968006E1,1.597396E1,8.151047E1,1.5210398E1,3.037342E1,2.4410917E1,3.9956849E0,1.7443475E0,3.936028E1,5.729802E0,1.7140475E2,4.406789E1],"tree_param":{"num_deleted":"0","num_feature":"32","num_nodes":"127","size_leaf_vector":"1"}},{"base_weights":[-2.0253714E-3,3.6882266E-1,-9.599291E-2,-2.7534452E-1,1.6639313E0,-1.5539898E-1,7.9821244E-2,-4.677754E-1,-1.9560352E-1,1.3084843E0,8.348057E-2,-1.04150124E-1,-3.081945E-1,2.2918746E-1,2.9890038E-2,-2.814065E-1,-5.466415E-1,-2.2951108E-1,1.1346319E-1,1.4686512E0,2.9995012E-1,-1.6178654E-1,1.1705191E-2,-1.7555322E-1,-3.7526128E-1,1.8031438E-1,4.2169875E-1,2.5447342E-3,2.7277228E-1,2.8154436E-1,-3.3986703E-1,-5.9811276E-1,-3.3687958E-1,3.9208233E-2,-2.705591E-1,2.0241135E-1,-1.6559115E-1,7.69439E-2,8.695507E-3,-9.836699E-3,3.2761063E-2,-1.5105443E-2,-3.092E-1,-2.386781E-2,3.2290462E-1,-2.1766639E-1,2.2034457E-1,-4.0702122E-1,-8.412584E-2,7.051683E-1,1.5687539E-1,5.2359796E-1,9.002622E-2,-2.484583E-2,2.6331615E-1,3.2365835E-1,-4.0050168E-2,-4.8371546E-2,2.79351E-2,-2.7201662E-2,-9.256728E-3,-3.15526E-2,-1.2874484E-2,-1.2389629E-2,-4.1717134E-2,-7.039048E-3,8.933621E-3,-1.533094E-2,3.3668273E-3,1.2769639E-2,-2.1473214E-2,-2.8736604E-2,7.155633E-3,-2.209131E-3,1.2081467E-2,-1.6906781E-2,-2.2952138E-3,-2.8085336E-3,1.4316313E-2,3.7315454E-2,1.2711409E-2,-1.2781354E-2,6.528627E-3,-5.185276E-3,2.1914361E-2,-2.2636749E-2,-1.1400476E-2,-1.9262342E-2,1.5697539E-3,7.652595E-2,2.6758153E-2,6.108587E-3,2.2885002E-2,7.6735513E-3,2.9697282E-2,-7.382266E-3,2.1228142E-2,-2.7619496E-3,1.3963162E-2,8.070507E-3,2.4669567E-2,2.1753341E-2,6.8448554E-3,1.1710246E-2,-3.1488813E-2],"categories":[],"categories_nodes":[],"categories_segments":[],"categories_sizes":[],"default_left":[0,0,0,0,0,0,0,0,0,0,0,0,0,0,0,0,0,0,0,0,0,0,0,0,0,0,0,0,0,0,0,0,0,0,0,0,0,0,0,0,0,0,0,0,0,0,0,0,0,0,0,0,0,0,0,0,0,0,0,0,0,0,0,0,0,0,0,0,0,0,0,0,0,0,0,0,0,0,0,0,0,0,0,0,0,0,0,0,0,0,0,0,0,0,0,0,0,0,0,0,0,0,0,0,0],"id":10,"left_children":[1,3,5,7,9,11,13,15,17,19,-1,21,23,25,27,29,31,33,35,37,39,41,43,45,47,49,51,53,55,57,59,61,63,65,67,69,71,-1,-1,-1,-1,73,75,77,79,81,83,85,87,89,91,93,95,97,99,101,103,-1,-1,-1,-1,-1,-1,-1,-1,-1,-1,-1,-1,-1,-1,-1,-1,-1,-1,-1,-1,-1,-1,-1,-1,-1,-1,-1,-1,-1,-1,-1,-1,-1,-1,-1,-1,-1,-1,-1,-1,-1,-1,-1,-1,-1,-1,-1,-1],"loss_changes":[6.877462E2,3.3290183E3,1.6447E2,4.0807693E1,4.9145508E-1,9.213071E1,2.9656624E1,1.1313461E1,1.979274E1,3.673874E0,0E0,5.8863792E1,2.6226624E1,9.298042E0,1.9805191E1,7.798168E0,5.7057953E0,1.8762794E1,4.678693E0,1.7075882E0,9.6660876E-1,1.272796E2,3.243697E1,1.6627785E1,1.8108734E1,9.686104E0,6.7453995E0,1.9158201E1,4.8164005E0,8.351706E0,6.6117325E0,4.7523193E0,4.6723213E0,5.7019973E0,1.7991371E1,4.875575E0,5.8648963E0,0E0,0E0,0E0,0E0,2.2045275E1,2.2352081E1,2.6367275E1,8.550369E0,1.1921997E1,6.833074E0,1.4372223E1,6.7695117E0,3.917509E0,7.91576E0,3.9065819E0,3.914332E0,2.245102E1,5.897953E0,5.342867E0,7.1196165E0,0E0,0E0,0E0,0E0,0E0,0E0,0E0,0E0,0E0,0E0,0E0,0E0,0E0,0E0,0E0,0E0,0E0,0E0,0E0,0E0,0E0,0E0,0E0,0E0,0E0,0E0,0E0,0E0,0E0,0E0,0E0,0E0,0E0,0E0,0E0,0E0,0E0,0E0,0E0,0E0,0E0,0E0,0E0,0E0,0E0,0E0,0E0,0E0],"parents":[2147483647,0,0,1,1,2,2,3,3,4,4,5,5,6,6,7,7,8,8,9,9,11,11,12,12,13,13,14,14,15,15,16,16,17,17,18,18,19,19,20,20,21,21,22,22,23,23,24,24,25,25,26,26,27,27,28,28,29,29,30,30,31,31,32,32,33,33,34,34,35,35,36,36,41,41,42,42,43,43,44,44,45,45,46,46,47,47,48,48,49,49,50,50,51,51,52,52,53,53,54,54,55,55,56,56],"right_children":[2,4,6,8,10,12,14,16,18,20,-1,22,24,26,28,30,32,34,36,38,40,42,44,46,48,50,52,54,56,58,60,62,64,66,68,70,72,-1,-1,-1,-1,74,76,78,80,82,84,86,88,90,92,94,96,98,100,102,104,-1,-1,-1,-1,-1,-1,-1,-1,-1,-1,-1,-1,-1,-1,-1,-1,-1,-1,-1,-1,-1,-1,-1,-1,-1,-1,-1,-1,-1,-1,-1,-1,-1,-1,-1,-1,-1,-1,-1,-1,-1,-1,-1,-1,-1,-1,-1,-1],"split_conditions":[1E0,4E0,1.8E1,7E0,1.9E1,4E0,2E0,3.3E1,1E0,4E0,8.348057E-2,3E0,3.6E1,1E0,1E0,3.1E1,1E0,2.5E1,1E0,2.3E1,5E0,2E0,1E0,1E0,1E0,1.7E1,5.9E1,1E0,1E0,2E1,2E0,1E0,4E0,2.1E1,1E0,6.7E1,1.4E1,7.69439E-2,8.695507E-3,-9.836699E-3,3.2761063E-2,1E0,1E0,1E0,5.1E1,1E0,2E0,1E0,5E0,2.6E1,1E0,5.6E1,2.025E3,1E0,2.68E2,5.2E1,2.2E1,-4.8371546E-2,2.79351E-2,-2.7201662E-2,-9.256728E-3,-3.15526E-2,-1.2874484E-2,-1.2389629E-2,-4.1717134E-2,-7.039048E-3,8.933621E-3,-1.533094E-2,3.3668273E-3,1.2769639E-2,-2.1473214E-2,-2.8736604E-2,7.155633E-3,-2.209131E-3,1.2081467E-2,-1.6906781E-2,-2.2952138E-3,-2.8085336E-3,1.4316313E-2,3.7315454E-2,1.2711409E-2,-1.2781354E-2,6.528627E-3,-5.185276E-3,2.1914361E-2,-2.2636749E-2,-1.1400476E-2,-1.9262342E-2,1.5697539E-3,7.652595E-2,2.6758153E-2,6.108587E-3,2.2885002E-2,7.6735513E-3,2.9697282E-2,-7.382266E-3,2.1228142E-2,-2.7619496E-3,1.3963162E-2,8.070507E-3,2.4669567E-2,2.1753341E-2,6.8448554E-3,1.1710246E-2,-3.1488813E-2],"split_indices":[9,8,3,3,6,9,9,6,28,5,0,9,6,20,31,2,16,6,21,3,3,9,27,27,28,2,6,28,25,6,5,22,7,6,25,6,3,0,0,0,0,29,22,29,2,25,5,21,3,6,25,2,1,25,2,6,3,0,0,0,0,0,0,0,0,0,0,0,0,0,0,0,0,0,0,0,0,0,0,0,0,0,0,0,0,0,0,0,0,0,0,0,0,0,0,0,0,0,0,0,0,0,0,0,0],"split_type":[0,0,0,0,0,0,0,0,0,0,0,0,0,0,0,0,0,0,0,0,0,0,0,0,0,0,0,0,0,0,0,0,0,0,0,0,0,0,0,0,0,0,0,0,0,0,0,0,0,0,0,0,0,0,0,0,0,0,0,0,0,0,0,0,0,0,0,0,0,0,0,0,0,0,0,0,0,0,0,0,0,0,0,0,0,0,0,0,0,0,0,0,0,0,0,0,0,0,0,0,0,0,0,0,0],"sum_hessian":[1.9733768E4,3.988805E3,1.5744963E4,2.6643738E3,1.3244314E3,1.1768578E4,3.9763845E3,7.7918335E2,1.8851903E3,2.4470789E1,1.2999606E3,8.8139795E3,2.9545994E3,9.953287E2,2.981056E3,2.3304399E2,5.4613934E2,1.6990461E3,1.8614418E2,2.0723444E1,3.747344E0,5.8855854E3,2.9283938E3,9.93441E2,1.9611584E3,7.9534906E2,1.999796E2,2.6803003E3,3.007556E2,2.156509E1,2.1147891E2,4.370459E2,1.0909346E2,2.2515063E2,1.4738955E3,1.4136041E2,4.4783768E1,1.9478376E1,1.2450686E0,1.748754E0,1.9985901E0,2.9506733E3,2.9349119E3,2.6288186E3,2.9957523E2,8.983321E2,9.5108826E1,1.7679004E3,1.9325804E2,3.2757042E1,7.62592E2,1.525372E2,4.7442394E1,2.4263494E3,2.5395096E2,2.5864743E2,4.210819E1,3.4640863E0,1.8101004E1,9.009048E1,1.2138843E2,3.977315E2,3.9314407E1,9.379459E1,1.5298871E1,9.829019E1,1.2686045E2,1.3318547E3,1.420408E2,1.3097432E2,1.0386095E1,1.8888334E1,2.5895433E1,2.6512292E3,2.9944406E2,2.6440522E3,2.9085965E2,2.3816213E3,2.4719737E2,4.0432636E1,2.5914258E2,8.102723E2,8.805987E1,3.8455322E1,5.6653503E1,1.4070552E3,3.608452E2,5.293663E1,1.4032141E2,4.227991E0,2.852905E1,6.8497797E2,7.761407E1,2.4869669E1,1.2766754E2,2.8063406E1,1.9378988E1,2.206633E3,2.1971622E2,1.7717659E2,7.677437E1,1.6117334E2,9.74741E1,2.9153202E1,1.2954986E1],"tree_param":{"num_deleted":"0","num_feature":"32","num_nodes":"105","size_leaf_vector":"1"}},{"base_weights":[1.6658846E-3,3.4867102E-1,-8.5994996E-2,-2.650598E-1,1.5667672E0,-2.20351E-1,-2.8565338E-2,-1.0466256E-1,-3.3040786E-1,1.2155027E0,7.8623906E-2,-1.5067038E-1,-3.7173116E-1,9.978162E-3,-2.6419276E-1,-1.5776642E-1,3.7641504E-1,-4.5143443E-1,-2.773359E-1,1.3697793E0,5.4797196E-1,-1.8251893E-1,1.3146104E-1,-4.1222516E-1,-6.745438E-3,6.0664132E-2,-1.4088921E-1,-1.6964303E-1,-3.6298838E-1,-3.8099262E-1,-6.3432105E-2,-1.6439583E-2,4.9929404E-1,-4.8619345E-1,-1.5630896E-1,-3.2285047E-1,-7.970706E-2,5.2668947E-1,1.5448428E0,-3.5120815E-2,9.798358E-1,-1.846756E-2,-2.3682296E-1,1.9409706E-1,-2.7249438E-1,-4.498308E-1,-5.539148E-2,-3.567472E-1,1.4596547E-1,3.32878E-2,3.0035764E-1,-1.7486444E-1,1.5686318E-1,-2.0818089E-1,1.5770267E-1,1.4447048E-1,-3.780738E-1,-3.6452767E-2,-1.590069E-2,4.093421E-3,-1.1055515E-2,-2.9188499E-2,1.1860318E-2,2.914838E-2,-5.17723E-3,-2.610311E-2,-8.948625E-3,-2.8653681E-2,9.906513E-4,-1.8539166E-2,-6.128742E-3,6.030338E-3,-1.1372147E-2,-2.1941539E-2,5.3315084E-2,8.197402E-2,2.4130896E-2,5.7213075E-2,1.703076E-2,1.5787443E-2,-2.6916983E-3,-1.3319601E-2,2.2251839E-3,3.9180785E-2,6.955863E-3,-5.703705E-3,-5.3604253E-2,-2.4951462E-2,-1.1232362E-2,-1.2017349E-2,6.3580237E-3,-4.802258E-2,-7.962386E-3,1.2340727E-2,-7.006421E-3,-3.7621846E-4,9.813493E-3,1.1227064E-2,2.2726672E-2,-1.0508327E-2,8.354179E-3,1.446627E-2,-4.192599E-3,-1.2123901E-2,6.141094E-3,1.9205995E-2,-2.4539628E-3,5.4574956E-4,5.5881854E-2,-2.0305282E-2,-5.8008702E-3],"categories":[],"categories_nodes":[],"categories_segments":[],"categories_sizes":[],"default_left":[0,0,0,0,0,0,0,0,0,0,0,0,0,0,0,0,0,0,0,0,0,0,0,0,0,0,0,0,0,0,0,0,0,0,0,0,0,0,0,0,0,0,0,0,0,0,0,0,0,0,0,0,0,0,0,0,0,0,0,0,0,0,0,0,0,0,0,0,0,0,0,0,0,0,0,0,0,0,0,0,0,0,0,0,0,0,0,0,0,0,0,0,0,0,0,0,0,0,0,0,0,0,0,0,0,0,0,0,0,0,0],"id":11,"left_children":[1,3,5,7,9,11,13,15,17,19,-1,21,23,25,27,29,31,33,35,37,39,41,43,45,47,49,51,53,55,57,59,61,63,65,67,69,71,73,75,-1,77,79,81,83,85,87,89,91,93,95,97,99,101,103,105,107,109,-1,-1,-1,-1,-1,-1,-1,-1,-1,-1,-1,-1,-1,-1,-1,-1,-1,-1,-1,-1,-1,-1,-1,-1,-1,-1,-1,-1,-1,-1,-1,-1,-1,-1,-1,-1,-1,-1,-1,-1,-1,-1,-1,-1,-1,-1,-1,-1,-1,-1,-1,-1,-1,-1],"loss_changes":[5.983281E2,2.9659788E3,1.2115714E2,2.7623047E1,7.546387E-1,4.9542145E1,9.992014E1,1.961053E1,1.1914124E1,1.8929176E0,0E0,2.8971405E1,2.1892548E1,7.231821E1,1.4386261E1,1.4504171E1,3.6951008E0,5.7690506E0,1.1717995E1,2.1653214E0,4.1904697E0,2.5788094E1,8.335854E0,1.7869019E1,8.014053E0,4.644078E1,2.4086761E1,1.002669E1,5.8380356E0,4.256359E0,1.1156728E1,2.8963754E0,2.9965544E0,5.5186157E0,4.526339E0,1.0138596E1,7.299252E0,3.0665483E0,8.3686066E-1,0E0,1.6080332E-1,8.540567E0,1.8105606E1,9.095896E0,5.4970484E0,1.3251038E1,4.3615966E0,5.27704E0,3.0474057E0,4.226826E1,8.378342E0,2.5809982E1,7.807868E0,8.080902E0,3.9521532E0,2.9165595E0,5.3444443E0,0E0,0E0,0E0,0E0,0E0,0E0,0E0,0E0,0E0,0E0,0E0,0E0,0E0,0E0,0E0,0E0,0E0,0E0,0E0,0E0,0E0,0E0,0E0,0E0,0E0,0E0,0E0,0E0,0E0,0E0,0E0,0E0,0E0,0E0,0E0,0E0,0E0,0E0,0E0,0E0,0E0,0E0,0E0,0E0,0E0,0E0,0E0,0E0,0E0,0E0,0E0,0E0,0E0,0E0],"parents":[2147483647,0,0,1,1,2,2,3,3,4,4,5,5,6,6,7,7,8,8,9,9,11,11,12,12,13,13,14,14,15,15,16,16,17,17,18,18,19,19,20,20,21,21,22,22,23,23,24,24,25,25,26,26,27,27,28,28,29,29,30,30,31,31,32,32,33,33,34,34,35,35,36,36,37,37,38,38,40,40,41,41,42,42,43,43,44,44,45,45,46,46,47,47,48,48,49,49,50,50,51,51,52,52,53,53,54,54,55,55,56,56],"right_children":[2,4,6,8,10,12,14,16,18,20,-1,22,24,26,28,30,32,34,36,38,40,42,44,46,48,50,52,54,56,58,60,62,64,66,68,70,72,74,76,-1,78,80,82,84,86,88,90,92,94,96,98,100,102,104,106,108,110,-1,-1,-1,-1,-1,-1,-1,-1,-1,-1,-1,-1,-1,-1,-1,-1,-1,-1,-1,-1,-1,-1,-1,-1,-1,-1,-1,-1,-1,-1,-1,-1,-1,-1,-1,-1,-1,-1,-1,-1,-1,-1,-1,-1,-1,-1,-1,-1,-1,-1,-1,-1,-1,-1],"split_conditions":[1E0,4E0,1E0,3.3E1,1.9E1,5.4E1,2E0,1E0,1E0,2.71E2,7.8623906E-2,1E0,1E0,4E0,4.5E1,1E0,1E0,1E0,1E0,2.024E3,2.88E2,2E0,1E0,1E0,1.15E2,1E0,1E0,1E0,1.2E1,2E1,2.6E1,1E0,2E0,1E0,4.5E1,1E0,1.58E2,1E0,1E0,-3.5120815E-2,1E0,3.7E1,1E0,3.1E1,5E0,1E0,1E0,2.024E3,4E0,1E0,3E0,1E0,5.4E1,1E0,3E0,1E0,1E0,-3.6452767E-2,-1.590069E-2,4.093421E-3,-1.1055515E-2,-2.9188499E-2,1.1860318E-2,2.914838E-2,-5.17723E-3,-2.610311E-2,-8.948625E-3,-2.8653681E-2,9.906513E-4,-1.8539166E-2,-6.128742E-3,6.030338E-3,-1.1372147E-2,-2.1941539E-2,5.3315084E-2,8.197402E-2,2.4130896E-2,5.7213075E-2,1.703076E-2,1.5787443E-2,-2.6916983E-3,-1.3319601E-2,2.2251839E-3,3.9180785E-2,6.955863E-3,-5.703705E-3,-5.3604253E-2,-2.4951462E-2,-1.1232362E-2,-1.2017349E-2,6.3580237E-3,-4.802258E-2,-7.962386E-3,1.2340727E-2,-7.006421E-3,-3.7621846E-4,9.813493E-3,1.1227064E-2,2.2726672E-2,-1.0508327E-2,8.354179E-3,1.446627E-2,-4.192599E-3,-1.2123901E-2,6.141094E-3,1.9205995E-2,-2.4539628E-3,5.4574956E-4,5.5881854E-2,-2.0305282E-2,-5.8008702E-3],"split_indices":[9,8,4,6,6,6,4,29,4,2,0,30,29,9,6,4,8,22,13,1,2,9,25,30,2,25,27,24,2,6,6,4,4,30,6,15,2,7,20,0,15,2,22,2,8,15,7,1,9,16,9,25,6,29,8,29,23,0,0,0,0,0,0,0,0,0,0,0,0,0,0,0,0,0,0,0,0,0,0,0,0,0,0,0,0,0,0,0,0,0,0,0,0,0,0,0,0,0,0,0,0,0,0,0,0,0,0,0,0,0,0],"split_type":[0,0,0,0,0,0,0,0,0,0,0,0,0,0,0,0,0,0,0,0,0,0,0,0,0,0,0,0,0,0,0,0,0,0,0,0,0,0,0,0,0,0,0,0,0,0,0,0,0,0,0,0,0,0,0,0,0,0,0,0,0,0,0,0,0,0,0,0,0,0,0,0,0,0,0,0,0,0,0,0,0,0,0,0,0,0,0,0,0,0,0,0,0,0,0,0,0,0,0,0,0,0,0,0,0,0,0,0,0,0,0],"sum_hessian":[1.966771E4,3.9658672E3,1.5701843E4,2.637673E3,1.3281941E3,4.7010215E3,1.1000821E4,7.642987E2,1.8733744E3,2.466914E1,1.303525E3,3.220578E3,1.4804437E3,9.455127E3,1.5456946E3,6.8892377E2,7.537495E1,5.687886E2,1.3045858E3,1.9183523E1,5.485617E0,2.8942158E3,3.2636197E2,1.33248E3,1.4796382E2,7.07783E3,2.3772966E3,7.912075E2,7.5448706E2,2.0374855E2,4.851752E2,1.8165266E1,5.7209682E1,5.0827768E2,6.051087E1,1.0598625E3,2.4472328E2,3.9876964E0,1.5195827E1,1.2474273E0,4.23819E0,7.201121E2,2.1741038E3,2.8300037E2,4.3361607E1,1.2052062E3,1.2727376E2,4.454165E1,1.0342217E2,6.3533306E3,7.244998E2,2.1341865E3,2.4311E2,7.081967E2,8.3010796E1,2.153381E1,7.329533E2,2.959742E1,1.7415112E2,2.5274832E2,2.3242688E2,5.210164E0,1.2955101E1,5.0265793E1,6.9438915E0,4.5451297E2,5.3764713E1,1.7305742E1,4.3205128E1,8.5449994E2,2.0536267E2,1.0395509E2,1.4076819E2,1.4966066E0,2.4910898E0,1.3453744E1,1.7420827E0,2.7426214E0,1.4955686E0,6.815088E1,6.5196124E2,1.9673743E3,2.0672948E2,2.3011175E1,2.599892E2,3.714488E1,6.216727E0,9.8810706E2,2.1709918E2,6.3063427E1,6.4210335E1,1.0027413E1,3.4514236E1,7.6568726E1,2.6853443E1,5.0817646E3,1.2715657E3,4.8731686E2,2.3718294E2,1.9348242E3,1.9936237E2,1.5668596E2,8.6424034E1,6.419481E2,6.624857E1,3.9214745E1,4.379605E1,1.9824368E1,1.7094417E0,6.6163E2,7.132328E1],"tree_param":{"num_deleted":"0","num_feature":"32","num_nodes":"111","size_leaf_vector":"1"}},{"base_weights":[2.2749591E-4,3.3225906E-1,-8.356383E-2,-2.3855114E-1,1.4798603E0,-2.1553695E-1,-2.7315509E-2,-2.6922438E-1,3.27895E-2,1.1477159E0,7.4254245E-2,-9.581128E-2,-2.885082E-1,9.816885E-3,-2.5145367E-1,-3.163756E-1,-8.109703E-2,8.274286E-1,4.772357E-3,6.73439E-2,-5.41092E-2,6.499284E-2,-1.4936715E-1,-3.2188296E-1,8.23842E-3,6.0586642E-2,-1.4240168E-1,-9.199921E-2,-3.3695823E-1,-3.6763978E-1,-1.0427833E-1,1.7098019E-1,-1.2010929E-1,1.0043886E0,-8.413257E-3,-1.1740137E-1,2.4277703E-1,2.06836E-2,-3.5265703E-2,2.449478E-2,4.2365053E-1,-1.7375681E-1,6.503876E-2,-3.5317376E-1,-4.1233297E-2,6.324732E-2,-2.451633E-1,2.214145E-2,2.1118367E-1,-2.494145E-2,-2.2648351E-1,-1.6012742E-1,1.6738544E-1,-3.886793E-1,-1.1126139E-1,-2.0645933E-2,-7.859631E-3,2.1994596E-3,-1.0744715E-2,4.4189915E-3,3.2859515E-2,-1.4742884E-2,-3.793964E-3,6.1679244E-2,-6.5248595E-3,-1.0523456E-3,-1.9080041E-2,1.52185755E-2,-3.3579078E-2,-1.7108644E-3,1.2930888E-2,-9.902645E-3,2.7345253E-2,-1.0114411E-2,4.8793014E-3,-1.9067532E-3,1.9723747E-2,-1.9236151E-2,-1.2430283E-3,3.1417802E-3,-1.943145E-2,6.079569E-3,-7.340528E-3,-2.0881899E-2,1.42480405E-2,-2.954056E-4,1.3694169E-2,1.5152045E-2,6.0984343E-3,-3.3357951E-3,1.7534409E-2,-1.2809388E-2,2.7911044E-3,-2.761388E-3,-1.6400142E-2,1.452827E-2,-1.3425174E-2,-2.1183891E-2,-4.4217943E-3,-3.68673E-4,-1.4205773E-2],"categories":[],"categories_nodes":[],"categories_segments":[],"categories_sizes":[],"default_left":[0,0,0,0,0,0,0,0,0,0,0,0,0,0,0,0,0,0,0,0,0,0,0,0,0,0,0,0,0,0,0,0,0,0,0,0,0,0,0,0,0,0,0,0,0,0,0,0,0,0,0,0,0,0,0,0,0,0,0,0,0,0,0,0,0,0,0,0,0,0,0,0,0,0,0,0,0,0,0,0,0,0,0,0,0,0,0,0,0,0,0,0,0,0,0,0,0,0,0,0,0],"id":12,"left_children":[1,3,5,7,9,11,13,15,17,19,-1,21,23,25,27,29,31,33,35,-1,37,39,41,43,45,47,49,51,53,55,57,59,61,63,-1,65,67,-1,-1,69,71,73,75,77,79,81,83,85,87,89,91,93,95,97,99,-1,-1,-1,-1,-1,-1,-1,-1,-1,-1,-1,-1,-1,-1,-1,-1,-1,-1,-1,-1,-1,-1,-1,-1,-1,-1,-1,-1,-1,-1,-1,-1,-1,-1,-1,-1,-1,-1,-1,-1,-1,-1,-1,-1,-1,-1],"loss_changes":[5.48332E2,2.6019412E3,1.16817894E2,2.2090637E1,5.847168E-1,4.1059174E1,9.184977E1,2.1119644E1,6.015008E0,6.0171394E0,0E0,1.5359747E1,2.8936432E1,7.317976E1,2.1353363E1,2.0682526E1,4.7317705E0,1.7902908E0,7.651254E0,0E0,1.6600566E0,6.4679365E0,7.0048847E0,2.3047577E1,4.1461697E0,4.1106995E1,2.3385353E1,9.725815E0,1.1870468E1,1.4555817E1,6.1162844E0,2.5370681E0,3.1887121E0,2.2305431E0,0E0,4.418938E0,5.230798E0,0E0,0E0,5.532236E0,3.571185E0,9.318123E0,4.682549E0,2.4462128E1,9.58912E0,3.0115542E0,4.9703937E0,3.9952976E1,1.1796333E1,1.5545715E1,1.1588211E1,7.6456766E0,6.234416E0,8.6833725E0,3.4399595E0,0E0,0E0,0E0,0E0,0E0,0E0,0E0,0E0,0E0,0E0,0E0,0E0,0E0,0E0,0E0,0E0,0E0,0E0,0E0,0E0,0E0,0E0,0E0,0E0,0E0,0E0,0E0,0E0,0E0,0E0,0E0,0E0,0E0,0E0,0E0,0E0,0E0,0E0,0E0,0E0,0E0,0E0,0E0,0E0,0E0,0E0],"parents":[2147483647,0,0,1,1,2,2,3,3,4,4,5,5,6,6,7,7,8,8,9,9,11,11,12,12,13,13,14,14,15,15,16,16,17,17,18,18,20,20,21,21,22,22,23,23,24,24,25,25,26,26,27,27,28,28,29,29,30,30,31,31,32,32,33,33,35,35,36,36,39,39,40,40,41,41,42,42,43,43,44,44,45,45,46,46,47,47,48,48,49,49,50,50,51,51,52,52,53,53,54,54],"right_children":[2,4,6,8,10,12,14,16,18,20,-1,22,24,26,28,30,32,34,36,-1,38,40,42,44,46,48,50,52,54,56,58,60,62,64,-1,66,68,-1,-1,70,72,74,76,78,80,82,84,86,88,90,92,94,96,98,100,-1,-1,-1,-1,-1,-1,-1,-1,-1,-1,-1,-1,-1,-1,-1,-1,-1,-1,-1,-1,-1,-1,-1,-1,-1,-1,-1,-1,-1,-1,-1,-1,-1,-1,-1,-1,-1,-1,-1,-1,-1,-1,-1,-1,-1,-1],"split_conditions":[1E0,4E0,1E0,1E0,1.9E1,3.8E1,2E0,1E0,1E1,4E0,7.4254245E-2,2E0,1E0,4E0,3.6E1,1E0,2.5E1,1E0,2.41E2,6.73439E-2,2.31E2,1E0,1E0,1E0,4E0,1E0,4E1,1E0,1E0,1E0,4E1,1E0,1E0,4E0,-8.413257E-3,3E0,6.9E1,2.06836E-2,-3.5265703E-2,1E0,2.1E1,1E0,2.88E2,1E0,2.85E2,1E0,1E0,1E0,3E0,1E0,1E0,2.27E2,4E0,1E0,2.025E3,-2.0645933E-2,-7.859631E-3,2.1994596E-3,-1.0744715E-2,4.4189915E-3,3.2859515E-2,-1.4742884E-2,-3.793964E-3,6.1679244E-2,-6.5248595E-3,-1.0523456E-3,-1.9080041E-2,1.52185755E-2,-3.3579078E-2,-1.7108644E-3,1.2930888E-2,-9.902645E-3,2.7345253E-2,-1.0114411E-2,4.8793014E-3,-1.9067532E-3,1.9723747E-2,-1.9236151E-2,-1.2430283E-3,3.1417802E-3,-1.943145E-2,6.079569E-3,-7.340528E-3,-2.0881899E-2,1.42480405E-2,-2.954056E-4,1.3694169E-2,1.5152045E-2,6.0984343E-3,-3.3357951E-3,1.7534409E-2,-1.2809388E-2,2.7911044E-3,-2.761388E-3,-1.6400142E-2,1.452827E-2,-1.3425174E-2,-2.1183891E-2,-4.4217943E-3,-3.68673E-4,-1.4205773E-2],"split_indices":[9,8,4,31,6,6,4,14,2,5,0,9,28,9,6,18,6,28,2,0,2,30,22,31,5,16,6,14,16,20,6,30,5,5,0,8,6,0,0,14,6,29,2,22,2,13,20,25,8,31,28,2,9,22,1,0,0,0,0,0,0,0,0,0,0,0,0,0,0,0,0,0,0,0,0,0,0,0,0,0,0,0,0,0,0,0,0,0,0,0,0,0,0,0,0,0,0,0,0,0,0],"split_type":[0,0,0,0,0,0,0,0,0,0,0,0,0,0,0,0,0,0,0,0,0,0,0,0,0,0,0,0,0,0,0,0,0,0,0,0,0,0,0,0,0,0,0,0,0,0,0,0,0,0,0,0,0,0,0,0,0,0,0,0,0,0,0,0,0,0,0,0,0,0,0,0,0,0,0,0,0,0,0,0,0,0,0,0,0,0,0,0,0,0,0,0,0,0,0,0,0,0,0,0,0],"sum_hessian":[1.9707027E4,3.970511E3,1.5736516E4,2.6521426E3,1.3183683E3,4.7018726E3,1.1034643E4,2.382792E3,2.6935068E2,2.3834198E1,1.2945342E3,1.7814003E3,2.9204724E3,9.467193E3,1.5674495E3,1.9047208E3,4.7807114E2,8.201511E0,2.6114917E2,2.0342432E1,3.491766E0,4.4501312E2,1.3363871E3,2.6251414E3,2.9533115E2,7.099789E3,2.3674045E3,5.478533E2,1.01959625E3,1.5333702E3,3.7135065E2,6.3618473E1,4.1445267E2,6.9564433E0,1.2450683E0,1.7290132E2,8.824783E1,2.2443423E0,1.2474236E0,4.0082233E2,4.4190804E1,1.2000638E3,1.3632323E2,2.3615803E3,2.6356107E2,2.432717E2,5.2059452E1,5.6568306E3,1.4429581E3,9.882043E2,1.3792002E3,4.341936E2,1.13659676E2,8.289179E2,1.9067833E2,1.2610798E3,2.7229044E2,1.5892839E2,2.1242226E2,5.5390217E1,8.228258E0,8.256805E1,3.318846E2,5.715249E0,1.2411941E0,1.274863E2,4.5415035E1,8.330334E1,4.9444914E0,3.2114197E2,7.968036E1,7.2110343E0,3.697977E1,1.0861146E3,1.1394922E2,1.0448465E2,3.1838581E1,2.154383E3,2.0719717E2,2.0343686E2,6.0124207E1,1.9071994E2,5.255175E1,3.9439945E1,1.2619508E1,5.0906025E3,5.662281E2,7.097702E2,7.331879E2,8.9004333E2,9.816096E1,1.2479801E3,1.312202E2,2.6803598E2,1.6615762E2,8.8876915E1,2.478276E1,7.4201245E2,8.690544E1,1.1974963E2,7.0928696E1],"tree_param":{"num_deleted":"0","num_feature":"32","num_nodes":"101","size_leaf_vector":"1"}},{"base_weights":[-2.5841566E-3,3.082636E-1,-8.111385E-2,1.8977512E-1,3.5736835E-1,-1.3604647E-1,8.1372574E-2,1.5995899E-1,4.4727662E-1,3.3419806E-1,5.6855917E-1,-8.386779E-2,-2.9158553E-1,2.2710082E-1,3.3152834E-2,1.3450682E-1,3.8284653E-1,5.2406746E-1,1.3338676E-1,3.1362855E-1,5.2426875E-1,5.008894E-1,7.8383166E-1,-2.093564E-1,-3.0643279E-2,-3.2363224E-1,7.3502623E-3,1.756292E-1,4.4445458E-1,-7.159215E-2,8.6559184E-2,1.10821895E-1,3.6613488E-1,2.900364E-1,6.3079226E-1,2.2306179E-1,6.4204895E-1,-4.7911867E-3,6.606328E-1,2.9291552E-1,5.232794E-1,9.976784E-1,4.89034E-1,2.9787827E-1,5.837408E-1,8.7256825E-1,1.3734967E-1,-2.4338986E-1,1.0086611E-1,3.7188008E-3,-2.3581252E-1,-3.5399124E-1,-3.9163537E-2,-2.9534757E-1,1.1413176E-1,2.1379985E-1,-2.4591877E-1,3.4165284E-1,6.359492E-1,-1.05988756E-1,2.2775854E-1,1.955204E-1,-1.9265583E-2,6.911757E-3,-4.0266896E-4,2.2795647E-2,1.1427284E-3,1.7793773E-2,-7.3136124E-3,1.0987806E-2,5.3506922E-2,2.4417417E-2,-8.99583E-3,3.6306806E-2,1.0603437E-2,1.2516771E-2,-1.3599659E-2,4.7040265E-2,1.2474145E-2,1.3657472E-2,2.5263125E-2,1.9959627E-2,3.6940537E-2,6.043E-2,5.845931E-3,2.638319E-2,7.1302764E-3,8.289138E-3,5.0830483E-2,3.18478E-2,1.3901538E-2,5.9850793E-2,3.4047093E-2,2.4554716E-2,-2.7912354E-2,-1.4703162E-2,-1.8886359E-3,1.0960814E-2,-2.0343965E-2,-1.2180085E-3,1.2608113E-2,-1.3902049E-2,6.3969465E-3,-1.9236974E-2,-2.7831409E-3,-1.0141766E-2,4.0511475E-3,-2.1893028E-2,1.3223449E-2,-3.873453E-3,9.770086E-3,3.2673925E-3,1.4252028E-2,-1.7432608E-2,3.4225985E-2,8.818808E-3,2.5196834E-2,3.6080983E-2,-2.0079701E-3,-7.186727E-3,1.0559731E-2,1.5079826E-2,-7.432339E-3,7.017319E-3,2.108447E-2,4.6659983E-4,-1.4519708E-2],"categories":[],"categories_nodes":[],"categories_segments":[],"categories_sizes":[],"default_left":[0,0,0,0,0,0,0,0,0,0,0,0,0,0,0,0,0,0,0,0,0,0,0,0,0,0,0,0,0,0,0,0,0,0,0,0,0,0,0,0,0,0,0,0,0,0,0,0,0,0,0,0,0,0,0,0,0,0,0,0,0,0,0,0,0,0,0,0,0,0,0,0,0,0,0,0,0,0,0,0,0,0,0,0,0,0,0,0,0,0,0,0,0,0,0,0,0,0,0,0,0,0,0,0,0,0,0,0,0,0,0,0,0,0,0,0,0,0,0,0,0,0,0,0,0,0,0],"id":13,"left_children":[1,3,5,7,9,11,13,15,17,19,21,23,25,27,29,31,33,35,37,39,41,43,45,47,49,51,53,55,57,59,61,63,65,67,69,71,73,75,77,79,81,83,85,87,89,91,93,95,97,99,101,103,105,107,109,111,113,115,117,119,121,123,125,-1,-1,-1,-1,-1,-1,-1,-1,-1,-1,-1,-1,-1,-1,-1,-1,-1,-1,-1,-1,-1,-1,-1,-1,-1,-1,-1,-1,-1,-1,-1,-1,-1,-1,-1,-1,-1,-1,-1,-1,-1,-1,-1,-1,-1,-1,-1,-1,-1,-1,-1,-1,-1,-1,-1,-1,-1,-1,-1,-1,-1,-1,-1,-1],"loss_changes":[4.7909106E2,2.2962463E1,1.3986029E2,8.849091E0,1.3498291E1,9.5009445E1,2.7814104E1,5.8646793E0,2.8229733E0,9.700439E0,3.615387E0,5.856657E1,2.8177582E1,1.09325905E1,1.6654482E1,5.1028004E0,2.264165E0,3.269085E0,1.819525E0,9.744537E0,3.5972595E0,3.3936272E0,3.5534515E0,2.7597786E1,4.342225E1,2.2926727E1,9.269588E0,1.2883356E1,3.479519E0,1.037784E1,2.2737083E1,2.777545E0,2.6566248E0,2.3279948E0,4.841606E0,3.1441503E0,2.322565E0,1.4824358E0,3.6248446E-1,8.57811E0,5.152134E0,2.8317194E0,3.0014114E0,5.8617E0,2.2564392E0,2.6738472E0,2.467837E0,2.4512985E1,1.5646535E1,3.681493E1,1.3607655E1,2.1994507E1,5.077347E0,6.0828347E0,3.3154728E0,7.719986E0,6.6117945E0,3.2464504E0,3.7612724E0,1.0836475E1,2.933926E0,1.2063324E1,7.7646303E0,0E0,0E0,0E0,0E0,0E0,0E0,0E0,0E0,0E0,0E0,0E0,0E0,0E0,0E0,0E0,0E0,0E0,0E0,0E0,0E0,0E0,0E0,0E0,0E0,0E0,0E0,0E0,0E0,0E0,0E0,0E0,0E0,0E0,0E0,0E0,0E0,0E0,0E0,0E0,0E0,0E0,0E0,0E0,0E0,0E0,0E0,0E0,0E0,0E0,0E0,0E0,0E0,0E0,0E0,0E0,0E0,0E0,0E0,0E0,0E0,0E0,0E0,0E0,0E0],"parents":[2147483647,0,0,1,1,2,2,3,3,4,4,5,5,6,6,7,7,8,8,9,9,10,10,11,11,12,12,13,13,14,14,15,15,16,16,17,17,18,18,19,19,20,20,21,21,22,22,23,23,24,24,25,25,26,26,27,27,28,28,29,29,30,30,31,31,32,32,33,33,34,34,35,35,36,36,37,37,38,38,39,39,40,40,41,41,42,42,43,43,44,44,45,45,46,46,47,47,48,48,49,49,50,50,51,51,52,52,53,53,54,54,55,55,56,56,57,57,58,58,59,59,60,60,61,61,62,62],"right_children":[2,4,6,8,10,12,14,16,18,20,22,24,26,28,30,32,34,36,38,40,42,44,46,48,50,52,54,56,58,60,62,64,66,68,70,72,74,76,78,80,82,84,86,88,90,92,94,96,98,100,102,104,106,108,110,112,114,116,118,120,122,124,126,-1,-1,-1,-1,-1,-1,-1,-1,-1,-1,-1,-1,-1,-1,-1,-1,-1,-1,-1,-1,-1,-1,-1,-1,-1,-1,-1,-1,-1,-1,-1,-1,-1,-1,-1,-1,-1,-1,-1,-1,-1,-1,-1,-1,-1,-1,-1,-1,-1,-1,-1,-1,-1,-1,-1,-1,-1,-1,-1,-1,-1,-1,-1,-1],"split_conditions":[1E0,7E0,1.8E1,1E0,1E0,4E0,2E0,1E0,1E0,1E0,1E0,1E0,1E0,1E0,3E0,1E0,1E0,1E0,1E0,1E0,8E0,1E0,1E0,1E0,2E0,1E0,5E0,2E0,2.2E1,1E0,4E0,4E0,4E0,6E0,1E0,2E0,1E0,1E0,1E0,1E0,1.8E1,1E0,2E0,2.2E1,2E0,1E0,1.7E1,1E0,4E0,1E0,1E0,1E0,2E0,1E0,1E0,1E0,1E0,1E0,2E0,1E0,1E0,1E0,2E0,6.911757E-3,-4.0266896E-4,2.2795647E-2,1.1427284E-3,1.7793773E-2,-7.3136124E-3,1.0987806E-2,5.3506922E-2,2.4417417E-2,-8.99583E-3,3.6306806E-2,1.0603437E-2,1.2516771E-2,-1.3599659E-2,4.7040265E-2,1.2474145E-2,1.3657472E-2,2.5263125E-2,1.9959627E-2,3.6940537E-2,6.043E-2,5.845931E-3,2.638319E-2,7.1302764E-3,8.289138E-3,5.0830483E-2,3.18478E-2,1.3901538E-2,5.9850793E-2,3.4047093E-2,2.4554716E-2,-2.7912354E-2,-1.4703162E-2,-1.8886359E-3,1.0960814E-2,-2.0343965E-2,-1.2180085E-3,1.2608113E-2,-1.3902049E-2,6.3969465E-3,-1.9236974E-2,-2.7831409E-3,-1.0141766E-2,4.0511475E-3,-2.1893028E-2,1.3223449E-2,-3.873453E-3,9.770086E-3,3.2673925E-3,1.4252028E-2,-1.7432608E-2,3.4225985E-2,8.818808E-3,2.5196834E-2,3.6080983E-2,-2.0079701E-3,-7.186727E-3,1.0559731E-2,1.5079826E-2,-7.432339E-3,7.017319E-3,2.108447E-2,4.6659983E-4,-1.4519708E-2],"split_indices":[9,3,3,31,28,9,9,30,20,29,12,4,28,15,9,22,16,4,12,31,3,4,27,27,4,27,3,4,3,31,9,5,5,3,7,7,22,7,4,24,3,12,4,3,4,4,3,14,5,23,24,26,5,21,4,4,23,7,4,27,29,12,4,0,0,0,0,0,0,0,0,0,0,0,0,0,0,0,0,0,0,0,0,0,0,0,0,0,0,0,0,0,0,0,0,